-1.106731824008590 -0.455900564735286 -0.759021140431604 -0.027638627048504 -0.270473791566015 -0.242656928752058  0.077766670100168  0.446524322750200  0.522399829900733  1.170996886373744  0.316214942659473  0.797600696606147 -0.445386201421224  0.653675710498646 -0.671160880499060  0.268356402447212 -0.178252910228932 -0.143476468327187
 0.538815037063696  0.299280114597066  0.751996081510088  0.884922385877409 -0.187208746079683  0.059622151804256  0.061030630048712  0.010641746943952 -1.064053637430126 -1.198087353359544 -1.222202849047932  0.039609059850238 -0.882999045304073  0.182730237774700  0.682248814605740  0.539077979819449  1.093891979664729  0.392098077474497
-0.764994152529899  0.052706925146694 -0.652783929188582  0.467684882002736  0.514590024051896 -0.040620158401677  0.749390213940478  0.270951746214206  1.103396028772204  2.049648829096221  0.470213181689666  0.389433431720453  1.082915655053107  0.342404686358516 -0.691931407163227 -1.048717929525618 -0.010125218082513 -0.299712734198415
 1.876471576530335  1.810539647365306  1.080435765789581  1.221295121218056 -0.473718466459905 -0.249292585937432 -0.155911917507166 -0.855791688219680 -0.756787902375284 -0.487464084900737 -0.982458272020325 -0.597208145689086  0.631339724979502  0.546414007831457  0.371717615054713  0.024224694645228  0.981756611839941  1.573901482000376
-0.678305903142466 -0.290181342042113 -0.964247664053557  0.324751697859619 -0.317384754855074  0.409262691389011  0.764746315679643  1.126353691714058 -0.103887505558542  1.506889332480149  0.076049574286421  0.799328860023185  0.330581468697244  0.209508984161931  0.435273150079888  0.544430499260433 -0.023324213791239 -0.591740995232607
 0.971769343801215  0.897497304168147 -0.149318426035750  0.904832401151515  0.026388494689475  0.622110985364623 -0.565009675426010  0.412318791957273 -0.805670017982776 -0.217837625032226 -0.863767463495968 -0.022604323900157 -0.311559402877885 -0.338717607278195  0.461151452448361  0.493296245643359  0.517456426803455  0.238146526326416
-0.809692074895524 -0.453182417956412 -0.402201857522436 -0.101266493494541  0.778989483827487  0.357937332338669  1.021950540251690 -0.280595793988095 -0.131472379586737  0.613725159617322  0.905634292299071  1.259442789616354 -0.238174169069548  1.214778293407862 -0.119870954875767  0.327392904596961 -0.397388007542247 -0.409162607742715
 0.744820256467339  1.202657582668826  0.753505145107929  0.868793625284950  0.936772061032875 -0.399456562848939  0.336220954923353 -0.679770102475989 -0.372932889396473 -1.274339198191523 -0.391052999525344  0.217386976959692 -0.606793056013433  0.926952567638508 -0.184283754513372  0.725398240579642  0.112195026158894  0.312806816338751
-0.742050648965952 -0.092120344969456 -0.525943570416854 -0.229949471094376  0.859334484003971  0.478866138632797  0.502967435890601  0.481403936539611  1.252293216110975  0.378911036372554 -0.082584040295296  0.309295159152153  0.549917736685920  0.104149825215596 -0.470452905833802 -0.333230346154278 -0.312330784818030 -0.054237946878261
 1.723107766696555  0.553158294185595  0.413701639628213  0.023905257917929  0.561805244423049  0.176483653810446 -0.653118960232659 -0.734922344386271 -0.696363203967708 -1.140809716713232 -0.524488938407509  0.104643922905959 -0.272370413704606 -0.331220604989531  0.651521655389928  1.155424794200554  0.263442416277369  1.227091571033216
-0.682974700324925  0.038896903771576 -0.053730409305821  0.415237647379039  0.411332237707231  0.295810322030177  1.071434444404479  1.183481726744011  0.769887136778003  0.603964432606743  0.602259079152378  0.741960821635997  0.034905558855639  0.687688312629714  0.788852636117336 -0.700119663821843 -0.302755971669537 -1.320513880957931
 0.541642202445941  1.329185251374890  0.550981033427150  0.575478255639219  0.135686976921489  0.066722297688802  0.028589796336481 -0.336525909341548 -1.072721926392997 -0.798835096307968 -0.010956148764025  0.027642988176308  0.141617207914605  0.883571671807512  1.167110656336039  0.816083303493590  0.452305962502065 -0.108759527373992
-1.144649945583315 -0.111465101014945 -0.706823835708600  0.147055325509413  0.217039017737167  0.985865071300739  0.236503620807321  0.157824058267032  1.279628763128569  0.567576070576131  0.154360442221657  1.007847756395712  0.369329794872534  0.664409209986991  0.511307071430661 -0.629953504569161 -0.336481031060357 -0.122257384339404
 0.512139796502352  1.290268872226831  0.078776687814572 -0.054947749174325 -0.031500691343536  0.219056690702456 -0.474600040673009 -0.821246101204091 -0.706955379768484 -1.146230020594940 -0.677774055366519  0.826640078702081 -0.388006096660519  1.032132740837141  1.129350436006007  1.116915355455787  0.578584274590670  1.424953274469278
-0.719828377573189  0.226159861154124  0.486280264433727 -0.167124376650428  0.409717465272800  0.648917491714527  0.586356413557755  0.969622429627868  1.253453180669849  0.512151031699580  1.356254422546603  0.710223245599287  0.164761490259691 -0.652125923694547  0.441804776281574  0.229371252339801 -0.284659834465207 -0.938198740836235
 0.726599734588015  0.938189425619235  0.697777329857154  0.365988869063410  0.134597011398412 -0.300608679994138  0.137207046173953  0.163297481868189 -0.165361204419679 -0.530972005763240  0.328628467770437  0.112963537662434  0.307935275606361 -0.535817241124771  0.840361714416193  1.317135255043278  0.881432896070202  0.019326416568673
 0.125079215170064 -0.205339744200901 -0.114999851899004 -0.692975118100076 -0.036214224012082  0.480695243939106  0.768228299690639  0.789792121966934  0.285187142227483  1.625002895108372  0.500960930873123  1.172144320465977  0.733512188524231 -0.787351936956870  0.390343596359158 -0.473207509345259 -0.121260802341201 -0.342623996526931
 1.589978526662519  0.735843076862271  0.316378197228725 -0.239743796892112 -0.186680475553222  0.614101619570730  0.534325012195036  0.223573621122733 -0.192591943794459 -0.222561663082205 -0.617585228413073  0.480516101843838  0.367072112414582 -0.998328521450501  0.588759583900875  0.321722226618534  0.188479473887865  0.872952989049775
-0.321812929407127 -0.724709567222915  0.560441280375340  0.492081669691465  0.835117506871428  0.267503839811173  0.229402735167492 -0.114502705285693  1.429959713614355  1.167944963115064  1.278382637277617  0.386225313484068  0.977109712911202 -0.108898309138311 -0.457867677898459 -0.398982662598107  0.071222439694363 -0.847596772173589
 0.892239015367906  0.903542983447402  1.411071763564387  0.512821972803779  0.477236556029726  0.161759961603861 -0.475742909253300 -1.304359544525766 -0.480321487813463 -0.820221887038840  0.329764742777022  0.272940702811262  0.262311995550213 -0.052154770473680  0.000669841317370  1.134291947221928  0.810217977447749  1.633669698227312
 0.396573065559181  0.126543170278143 -0.373906699751776 -0.608329921245465 -0.174958524067594  0.317568620692869  1.227717895922471  0.422026154651323 -0.010869023538169  1.208353548507551  0.492905727520847  0.724691525874779  0.311944884398634 -0.198760858999746 -0.094153571828419 -0.500856750510790 -0.486875363319334 -0.024935242761476
 1.665037624849437  1.170895538897828  0.309455731574947 -0.328648264828493  0.101052699323493 -0.326066337200606  0.177094817230293 -0.377086040718987 -1.046764757545346 -0.626363934789347 -0.343340045610877  0.137110111042285 -0.204878880562992 -0.347494655090653  0.372474805693619  0.262778879321240  0.421296286534330  1.521158219561354
 0.114574808792488 -0.688925370543633 -0.025104390671196  0.747664643975833  0.192815506511374  0.876196751742154  0.401283672883914  0.260246070724772  1.573928650181482  1.273317122175701  0.350943242721289  0.118999992069640  0.563880909348402 -0.601132305181552 -0.134761331773320 -0.306538218490538 -0.201901204804962 -0.443206145376278
 1.854794072034538  0.050318491294148  0.105286198542348  0.654338335428535  0.047710379341430  0.317851678383795 -0.219473305713950 -0.350669621102389 -0.807662361601267 -0.946163324907809  0.004563141743873 -0.024163167043003  0.052342580113138 -0.173254046522396  0.188085370475522  0.274692343775370  0.495619469427425  0.447227488991330
 0.040734439779413 -0.332296260259504 -0.446809264953507  0.145968347374984  0.916682226451270  0.073749219284690  1.308829780392732  0.939389107373389  1.466920839677802  1.334396783879574  0.895355412776968  0.719316318787911 -0.343828343030367  0.730148700279943  0.104637448887386 -0.606725688784837 -0.583744162815690  0.325035053468443
 2.081602478823504  0.685167418234766 -0.203897889626318  0.951635351944982  0.202451992044390 -0.021840832844166  0.570150204883263 -0.441873583268399 -0.548894410135618 -0.881877385364506  0.003206879627371 -0.254328442838800 -0.394621836597218  0.537834173257909  0.903944220232640  0.916087243720660  0.267136481617176  1.588093196428340
-1.139300423898068 -0.615247976262076  0.353639151751681 -0.536361789826947  0.775791656539041  0.504980765513456  0.537029654191318  0.460142878016147  0.961942409025625  1.937969454588130  0.910276708110253  1.426911269943233  0.244792451476523 -0.222247336207240 -0.635061918634993  0.060561574987478 -0.454312487227842 -0.280860775764812
 0.390165589159005  0.452587467687904  1.085667160862233 -0.039313124282898  0.399207602841504 -0.401044641273379 -0.621216654512754 -0.458824549894215 -0.944626067375743  0.162645089684289 -0.205950598426150  0.765548381618492  0.542179836990512  0.541663960395615  0.262581313940279  0.963539944850826  1.395522614619009  1.321420173568204
-0.132912753549384 -0.751985578314642 -0.469266700060923  0.062068447050586  0.702223698274389  0.637796340822860  0.127907793296021  1.005799916665404  0.987820191929694  1.236242740491582  0.998473075007268  0.331600802126378  0.127152025097562 -0.077313423296826 -0.608183016397234 -0.712427682445396  0.172291555160740 -0.166186487223847
 1.258707446562907  0.424527991434097  0.101244486442439 -0.275457392936309  0.690634398888555  0.292217270702377 -0.561861019145736 -0.691343215638436 -0.904962413436832 -0.344547607801013  0.004368341977058  0.231891486018833 -0.141131725338422  0.262235503068137  0.432870200170923  0.983904490627471  0.867511925132505  0.856486514689273
-0.536825503252140 -0.755287054518182  0.655843491565319  0.698144987031957 -0.161092967802140 -0.040737564332464  0.167875297167255 -0.000305863934916  0.475553824009666  1.581944010809169  0.531647338413154 -0.183415895188201  0.110612551979806 -0.446754515150347 -0.509741104804063 -0.878958287445680 -0.326002228192415  0.133591422463602
 0.591252227850568 -0.005869302869338  1.128842931159731  0.685598736600896  0.075412442255623 -0.090239482981762 -0.014838515635139 -0.652855529188422 -0.167268145722167 -0.684052418875980 -0.438588816426002 -0.756700781160922 -0.045637017690162 -0.403129555488683 -0.453416404691942 -0.435839980178822  1.097273882020676  1.476182852756873
 0.003173900974342  0.700047947601118 -0.012062609286592 -0.322494211036886  0.401674698882303  0.509843198657956 -0.135611652214357  1.121887648096200  0.424125971403823  1.817703928757501  1.025079685909144 -0.200108173031461  0.570395456491800  0.912998785343700  0.283138043122136  0.921724245489700  0.472612570007381 -0.791315308850152
 1.033028339991326  1.559461725197240  0.793736915309494 -0.102308680683198  0.397748798978354  0.255010425072415 -0.570470495145319  0.226923469041750 -0.474612188497825  0.303640750632885  0.177086709168003 -0.719862326917512  0.485891047796685  0.797670443921900  0.708687263586341  1.334872031623016  1.364305749440353  0.983123212157538
-1.054908091236404 -0.391624285894060 -0.578180837001763 -0.342463974718681  0.735701223416054 -0.255887710105523  1.004822358754358  0.323520683237644  1.040626552542037  1.339339435893915  0.271623750910791  0.889245618815872 -0.296797487449696 -0.106755797727346 -0.244290946810024  0.305373493308864 -0.937538282836469 -0.485304564528928
 0.242973648791679  0.574526860305238 -0.149539119804726 -0.361492741362225 -0.043933004350437 -0.733558722971545 -0.092776542905278 -0.813106753675072 -0.617846855424078  0.122562736439893 -0.402601735103234  0.160136691637401  0.331817179095918  0.432094766894320  0.810081167170497  1.141232733492010  0.381097901256558  0.693623521171838
-0.762196319187849 -0.482845450723978 -0.921287779735934  0.021614560233921 -0.740241647535209  0.964959106513043 -0.075170734001370  0.783294449088424  0.229118643879482  1.725427948265557  0.835782035640241  1.181513378763417  0.337958269304924  0.019968392609993  0.166843454906647  0.518999790376532  0.239626455633025 -0.985269548142757
 0.875674445158274  0.197409172588166  0.077203829671445  0.412597755409011 -0.602941750012300  0.757911997797465 -0.080134916105829 -0.327082383853671 -0.927438846738782  0.113576661813313 -0.310549982044631  0.712756694136829 -0.330193763716693 -0.017621126238647  0.090246819847822  0.816531388941565  0.948787106731619  1.470956289482337
-0.359720867303878 -0.253903386578861  0.374104576831942  0.283269614886477 -0.309026600138723  0.850538928539184  0.646036894633954  0.717963771810249  1.645895830101096  1.948562225842310  0.919749003557157  0.363967040371688 -0.453509114349467  0.298815958353760 -0.644103958945305 -0.640599950196246 -0.130168020470575 -0.688827691451033
 0.526639417887006  0.562652642706815  0.710437286713558  0.415232223989001 -0.637064615371166 -0.316859830949057  0.050049241230948 -1.053915662685898 -0.656975637474909 -0.367526329794254  0.429882356810635 -0.025387617983070 -0.324805633671618  0.352038049386035 -0.085978657588367  1.149593903009521  1.047576049040841  0.432716625985682
 0.116443301043094 -0.760726253033550 -0.393299377672725 -0.342843890794048  0.538974330768548  0.560502143355441  1.164847586737495  0.411399900083526  0.953152665460381  1.119747228372850  1.592456404710704 -0.037500964788367  0.175114746835320  0.220593801660084  0.559650989718544 -0.323064696514828  0.187593669037484 -1.015343337452457
 1.279446425496575  0.834546583084568  0.207548295421791  0.127253485837267  0.402008824174449  0.109607363412655  0.047961775071578 -1.054251607986018 -0.570565966174283 -0.483372139115883  0.767103443232522 -0.107500334927902  0.247371334065213 -0.247850921828234  0.719365225172567  1.005452754675262  1.427072689431172  1.506933933973660
 0.127215458875698 -0.264363934273228 -0.617328580275474  0.381146870725021 -0.165145882088965  0.409090903630432  0.850635534374423  0.568195330836552  0.489558267906353  0.645424702299879  0.942797552174135  0.113284944815735  0.369848800124186  0.109333921891295 -0.232068029764751 -0.105573109840402  0.181989330997440 -0.346083712938938
 1.895062007215008  0.775873856737183  0.142490904714740  0.535443447993841 -0.339041795076955 -0.365639502872915  0.070143168836858 -0.578940573019128 -0.414697297021415 -0.534768550680352  0.166625266864331 -0.081493591280806  0.503162315581927 -0.005767614568312  0.388983486833229  0.203562327324493  1.049991012452967  0.709500425999322
-0.761826208123124 -0.641885151173966  0.254293280248709  0.171738983146639  1.323845651404607 -0.218899644735287  1.043020859878327  0.317525061361413  1.284974765139785  0.324489213749174  0.966294014366220  1.035169864697757  0.162912842243597 -0.319640078573603  0.171449154894798 -0.445227868703952 -0.646273554042649 -0.377748643115809
 0.615581217845803 -0.103233319103797  0.668240711852074  0.099420506154211  1.080633474935408 -0.706852848221924 -0.532515599703490 -0.558710299136244 -0.626839080363788 -0.915669920694326 -0.323421621895888  0.972577365575233 -0.069038754227601 -0.001081978833785  0.566157182385749  0.312222268624025  1.190072610669009  1.236843049175933
-0.056376486499979 -0.760179365491358 -0.594328364814385 -0.187621767812825 -0.080329727460364 -0.030177169545850 -0.177884417650790  0.321723170626351  1.393239784858508  1.140152626983826  0.367510662437677 -0.142872084165685  0.535268947519207  0.469395882533093 -0.296672538730520 -0.326145966136562 -0.826649891880872 -0.178566619920540
 1.629184296467254  0.063740100773007  0.651405486168254  0.373960554023833 -0.161454992689154 -0.639903786733225 -0.677841454896650 -0.328238469242502  0.209468402292424 -0.345267775609066 -1.073038467293816 -0.689700350389284  0.570351691251430  0.086637568090509 -0.215780215593453  0.315848074162346  0.068015711219034  1.022692331019971
 0.043301836306836 -1.299864974369079  0.136370803891583 -0.232328876741109 -0.294195931803921  1.379178082833527  0.699779879112409  0.091084219667481  0.188073339920134  0.190422358245956  0.529558383494708  0.649983605489492  1.014398302568752  0.153480072468041  0.164157793826543 -0.100399025539534 -0.451170556535268 -0.499234862308657
 1.889590548152093 -0.111835557086350  1.219988005234330 -0.443446319523872  0.573430693281062  0.709359807487122  0.625422049307567 -0.022365012124225 -0.645025553221291 -1.528522201489196 -0.956765942321368 -0.630871801288443  0.083016740738547  0.392337200080697 -0.075502223426603  0.760210501124046  0.379500353881215  0.619378507833680
-0.472175226424055 -0.122073894893411  0.383494181729041 -0.286670887109140  0.366001287058457  0.293088952769487  0.509705138622599  0.252179738910538  1.557374820117439  1.998865178918236  1.130941051207688  0.122448957160049  0.762247943262713 -0.303976448714182 -0.104988464621020 -0.182718032159726 -0.844805637220063  0.212605522419288
 1.719647073719260  0.496113221161020  1.384495659942055 -0.404691045650154  0.502435446562076 -0.369940477520057 -0.288763156975949 -0.503736721626425  0.063325598219866  0.428657148602476 -0.864207871523342  0.161824824625331  0.547894099141811 -0.030001122316707 -0.127510474135596  0.122862572951831  0.164801685313221  1.451123746057962
 0.194554350652647 -0.238941454736979 -1.072635138605141  0.058750469036311  0.616883256780474  0.157133227076055  0.664173886326854 -0.046452098278488  1.008492511542000  0.648989619873276  0.590542054117624  0.160940096151592 -0.289222711900716 -0.295267149506372 -0.740987319198415 -0.320633722912172 -0.377878141633435 -0.722142000833177
 1.559856300481193  0.746206561879548 -0.630121719246251  0.156062108363054  0.087807828044780 -0.214423941633818 -0.037635978490964 -0.535173364883565 -0.376570207824926 -0.642986701344299  0.051737896226609 -0.664810915516046 -0.664124300287142  0.025028380379951 -0.195550672788222  0.091622926230545  1.307983019084661  0.035102470060288
-0.351321325859200  0.272889580868841  0.163136179573570  0.587743882534450  0.182016265575025 -0.300787621587574 -0.674008581274527  0.166056319900958  1.258470195465637  0.576907451461041  1.656450345684113  0.865327327532911 -0.309292050643469  1.107671946734326 -0.338706683877102 -0.387361683880713  0.209468712077571  0.013661787734635
 1.581602783639945  1.559562629947652  0.738156494528215  1.159420313452014  0.288008740825095 -0.653549265133600 -1.360784938023788 -0.793223383162806  0.156125356868716 -0.961921611343960  0.500516471158698 -0.239625015661937 -0.263788279559798  1.239106252910012  0.550240410212308  0.270236715971718  0.895959991353870  0.843483551588049
-0.658330650414096 -0.774138804831581  0.387588613671462 -0.653065669109652  0.119997100607462 -0.424489618366028  0.065665864190445  0.411654322989251  1.663498030448398  1.563558249080225  1.157455384600098  0.766849141069842  0.008528746619594  1.182498517125339  0.784295381382099  0.423631852009607 -0.067413440565640 -0.487271591622279
 1.497442632522575  0.068457796849702  1.476182549746020 -0.425367658323827  0.499267446893027 -0.769012355341964 -0.795661133859727 -0.790436952696604 -0.058802652808090 -0.306967101677305 -0.254187216953112  0.162673487748606  0.149670218096830  1.185415180913221  1.528569704436478  1.477637589635003  0.414267812007877  0.800532230479756
-0.862412236184221  0.217694258865938 -0.151648777404684  0.146154727315798  0.831593200284461  0.733728304556846  1.247302235378394  1.196386940064815  1.081192673729301  0.872673874214920 -0.151828816846704  0.565443268335191  0.261601312843852 -0.019026371851469  0.166482967594159 -0.195027620248506 -0.905753925373107  0.136351994103387
 0.284723939187949  1.224125213773959 -0.042138448147329 -0.241031224235907  0.606070250265509  0.082626018859668  0.477724556749477 -0.437618896392215  0.240596134833456 -0.256980804193576 -0.404599898996149 -0.321221654558927  0.359187895586775  0.393853655220281  0.882184770196219  0.453683633426090 -0.092330507745188  1.567885841767015
-0.800759449056254 -0.478061205744186 -0.715218255407330  0.090124369203879  0.171829776410106  0.148346899075459 -0.074030674882193  0.142117312756651  1.068487039872152  0.598844040737117  1.422148369810966  0.928479205234561 -0.425216187681113 -0.344549627802083 -0.590831975407214 -0.312019660493219  0.123789533083822 -0.420342686773690
 1.262981022830553  0.082540412819711  0.587026451880012  0.441661724026190 -0.202077231946037  0.169785410634663 -0.280070993815297 -0.918847008390156 -0.705497067177106 -0.945442024924745 -0.001696627494318  0.480747142123390 -0.727710525883364  0.022203667202482  0.344760474250754 -0.246753484211651  1.150282645033690  1.344978960309835
-0.138309109428670 -0.583962118161234 -0.535134872943562  0.269472894470370  0.495583834219704  0.177753779788456  0.910182359749479  1.018274065119371  0.548037039802709  0.661681990377443  0.742252147474116  0.431773552903807  0.436234178980955 -0.265424755786362 -0.109196982520612 -0.005315034538842 -0.266509419375422 -0.577221959988486
 1.145651772959395 -0.141422122375633  0.074051736719001  0.440773154361790  0.210148771817582  0.078534921044659  0.319366924212375 -0.755609358175202 -0.279856835966437 -0.292615619565603 -0.166643135822788  0.075326290131365  0.457602558952050 -0.282778738566728  0.405116075645222  0.358964119532499  0.920555344742002  1.318647683548815
-0.610946559688590  0.412077672101879 -0.144265305394851  0.535377383853344  1.291800834036201  0.841369332333499  0.372087417573989  0.329931335777450  0.693156581221185  1.720507558986845  0.927891813726985  0.342476024801758  1.053316595571305 -0.171201690481193 -0.375789073282057 -0.813148180178844  0.150309724925486 -0.833573483217620
 0.762038364000609  1.021448413845010  0.705614794198652  0.219693893416412  1.013465977591459  0.009396106742664 -0.432733390981143 -0.816312570938956 -0.270194881640340 -0.080940183448326 -0.121653665576991  0.408510745670118  0.855174849929754  0.191361428890651  0.267012364140556  0.147929705384569  1.055468098635971  0.425369440862073
-0.929707905001152 -0.574837946625891 -0.706880991980010  0.287880772250416 -0.107490411451416  1.162673116164782  0.925673582540811  1.158252117849393  1.391930185946332  0.539225260116039  1.150999626596475  0.276969351294436  0.285028522292605  0.285792297509841  0.988002354368695 -0.400462128711132 -0.101024541969363 -1.049321270050168
 0.618796597027435  0.165369720882854 -0.126932565022190  0.479413876164220  0.284225856656681  0.356597224388909  0.550862264935345  0.194409256757440 -0.656416511278997 -0.420190880149630 -0.057761992144123 -0.334620773508710 -0.184329249360608  0.510627786463337  1.169281283723641  0.456785352465690  1.724501476035439  0.544905064821199
-1.096197678458121  0.282196991495267  0.594768183034351 -0.201461514233689 -0.288808864531950  0.387530851169098  0.683556219104779  0.627660923505628  0.731392301250760  1.683118958563067  0.760692127290540  0.239368966849113 -0.158864325147832 -0.125129350158160 -0.752692232527840  0.308632323796449 -0.542703825758633  0.576192597729620
 0.510304608288762  0.891535926418736  1.567389648408257  0.714018579964229 -0.424070035895324  0.422468347737255 -0.036276188013528  0.211543355462050  0.085433139285928 -0.259772431722841 -0.614300938768559 -0.291664496322097 -0.641683204892871  0.013662605838642 -0.556127378585612  0.575071288466759  0.467399040226662  1.525606221840712
 0.058286699684040 -0.014686509729868  0.445327664611039  0.104619419107403  0.099847114170742 -0.204724837314454 -0.203549017820629  0.631644980554065  1.223494314250975  0.890298582132509  0.885417852619050  0.171654365011140  0.303600930459569 -0.461113192732092 -0.845811480798536 -0.414533756194728 -0.305646442579532 -0.104391110953807
 1.396711241799670  0.982016023469342  0.908642148962797  0.648704623192757 -0.201236696459368 -0.334701585821511 -0.638198189356074 -0.217060851404204  0.166585608389582 -0.715763176107160 -0.285760946998124 -0.200994800874686  0.332749653309610 -0.645112726936028 -0.372877840545189  0.110031680996996  0.646407619297187  0.579323230612281
-0.724435321235206 -0.665128217436651 -0.587107028447936 -0.051156780034467  0.331406076308089 -0.268449250983854  0.405439056512984  0.895838534999871  0.223788750714668  1.093025445353566  0.014573293992893 -0.155986508132440  0.871960961913371 -0.788282057865301 -0.213314737470296 -1.192578357535646 -0.625232591973819 -1.392294975541751
 0.670553929701473  1.225352603745385  0.574053355481965 -0.193106544995007 -0.302709176793061  0.027449548839594 -0.156306053125935 -0.777745052529497 -0.414141614312413 -0.889083513377385 -1.213401720979583 -0.091860227607338 -0.059136947621623 -0.743448294553393  0.058116682083446 -0.429291505963166  0.044737913424117  0.197757264984861
-1.156820208192223 -0.579025168396074 -0.202378440680177  0.329916057902835  0.216961656916506  0.226166059455425  1.305479475293830  0.914605755341447  0.834268234756086  1.351133100399258  0.670223776874170  1.011362053520065  0.796369379975530  1.036821665171803 -0.042048216183942 -1.080851465873921 -0.338316629234463 -0.998177887076140
 0.246341440847132  0.235765017509681  0.426970917411138  0.122407409307751 -0.541795226215314 -0.345039624216518  0.313967962711506 -0.793527477610721 -0.254768931138828  0.111975336330428  0.180884541869524  1.011214280492497  0.227149459345077  1.364266163228662  0.888354420376174 -0.164509823875957  0.726690911576675  0.731601081024163
-1.048736337348788 -0.746945863006939  0.118510470629523  0.073701335137546 -0.464378135944656  1.121800786981484  0.835547624321033  0.453438637237817  0.338634659653508  0.958831217742823  0.906504605001415  0.265234970066051  0.584905818677277  0.289059445076860 -0.238658936779528  0.038716278666593  0.080965094487599 -0.551990358612427
 0.754101075986554  0.489592068276322  0.633800402443890  0.894169314801016  0.244877919504454  0.955706696433475  0.545447668112070 -0.096320754861812 -0.621002058671977 -0.691241707733615 -0.531767540958035 -0.843624447393361  0.320075508466643  0.423224815603218 -0.254289578785342  0.568119937572975  0.718521492805078 -0.105636819004411
-0.867846751412509 -0.094749706011172  0.213698704128601  0.473156868114074 -0.009503136344981  0.969321905699587 -0.153777677552226  0.867890749713357  0.167628877415022  0.176134908432986  0.740603551047000  0.446048396138617 -0.086828568257020  0.485372893816203  0.685595560058725  0.005397978878750 -0.897661222386277 -0.597673597450850
 0.717127809625562  0.483961034380031  0.544013616146669  0.842296342190646 -0.176319728985404  0.584603375266186 -0.505824945475774  0.312507149062466 -0.606952186422397 -0.860363116023867  0.098082428992482 -0.089079053697417  0.003386460791287  0.707551816140967  0.976093752612984  0.398174344143914 -0.157606316988621  1.062864197708089
-0.986903901138668  0.068806848752427  0.095825922398241  0.029638502411241 -0.438219691876899  0.268700415330879 -0.052731096660449  0.036601897671306  0.262854944210177  0.756424586422545  1.322264548840592 -0.179679496001956  0.948397200197344 -0.185276295644512  0.814151950985633 -0.157347541888627  0.671263219183762 -0.774177861158704
 1.098296691213173  0.900412923508073  0.378157112437003  0.005347881584002 -0.741719999964447 -0.355670201833300 -0.551210498850084 -0.883782584466143 -1.151097578501642 -0.256342060058218  0.673898879046896 -0.377557863414754  0.752781919188107  0.258858728297063  1.209895777664636  0.480927068176908  1.644402746330717  1.627163154234286
-1.342665550619818 -0.368150532908926 -0.687423731137816 -0.353300214551255 -0.253382759444419  0.085714761491726  0.496317505279287 -0.274089361151361  0.841760478061841  0.883980362527014  0.914597451711560  1.202816875207973  0.915219259412405 -0.308558117895626 -0.599626466359698 -0.339558887704630  0.247466939045645  0.792138997284382
 0.291935603412099  0.301209508837974  0.246310483082579 -0.454896685973125 -0.265611543464960 -0.134858883066755 -0.136564976862282 -1.046172608038673 -0.156017599193737 -0.287572126287410 -0.583245733385762  0.716980789049677  0.620712216785368 -0.106913453749196 -0.138137722223910  0.020699097298817  0.974622686133671  1.753377473599651
-0.857011332215884 -0.106535204561997 -0.217624304079053  0.063565800195221  0.245628403625529  0.534700281638883  0.511087808421354 -0.253767346403886  0.800885811243100  1.195383232557897  1.496867668095609 -0.027257160450265  0.088873935046851 -0.557870450636698 -0.331962923860252 -0.102009800199156 -0.493174471601566 -0.160128817214932
 0.495155018947967  1.060351182203056  0.550500044526078  0.168168720484674  0.107176898142997  0.263775280058804 -0.289191047580390 -0.864229048163312 -0.522664764383743 -0.145337123276301  0.536941527219559 -0.199211060369625 -0.486787048202007 -0.085273508992307 -0.008861406503756  0.168974244737730  0.309344089565882  0.569731190026379
-0.749236195099783 -0.479796021603233 -0.481710446278393 -0.707139864166423  0.373050359539977  1.256443842801769  0.823177537327911  0.719852257177246  0.952292994679431  0.197825756096316  0.878128692236500 -0.336205487677571  0.419254511157453  1.108555022781366 -0.009045060606391  0.262193483141209  0.072277162590503  0.005312705681972
 1.072538802955561  0.487080961856252  0.223041784429500 -0.662758233344757 -0.178442536554390  0.731351786195110 -0.398543042568920 -0.301223271910340  0.006480671509113 -0.843714952508903 -0.732265571708771 -0.018129382372771 -0.485457095225083  1.225737390325083  0.047141301880321  0.977818883158238  1.015080179866232  1.288584577135653
-0.385132136331660 -0.967021919716609  0.260792711244500 -0.253792529236535  0.337742741159951  0.240078836989182  0.046786863928497  1.157189186598901 -0.106291825681652  0.357701360642016  1.005484916070618  0.670936945085173 -0.626177594651763  0.414729281257215 -0.213950637764984  0.381894814257185 -1.275009481565081 -0.424980397729796
 0.790723801556954  0.289214439229447  0.606934622874383 -0.188310535386835 -0.200399750654260 -0.026252764044695 -0.429358031908343 -0.769093000810279 -0.895206711581097 -1.161255269890360  0.483500716459212  0.185960148695749 -0.681024991981552  0.576802505024488 -0.197627503859462  1.022872056481345 -0.339696141689292  0.761982465166787
-0.435538315617950 -0.131457979238245  0.627756940236152  0.203127976281267  0.822208007912906 -0.474367159070253  0.177004131673965  1.076611785553824 -0.029636862384637  0.721538393267710 -0.031582427265193  0.267952492638593 -0.504919889028593  0.209378975519127  0.317300796594669 -0.624135431797418 -0.495923196027412 -0.604806977051719
 0.842617747193701  0.397551172526577  0.943265723438890  0.406148715014820  0.373656346327855 -0.706208124984878 -0.780977465012646 -0.811701851752808 -1.286880620628495 -0.189217142369003 -0.839334845990848 -0.056805159918846 -0.490229222584476  0.276499336014870  1.077326891901679  1.154274472722001  0.627755265063004  0.358363876904765
-0.982558755920771  0.205704549889811 -0.109081621939680 -0.450528405389650 -0.017530009970637  0.232476318195042 -0.119206379417191 -0.215024127285497  0.624696080651900  1.609571066353469  1.134966055810614  1.141238523195089  0.158921451872751  0.572582908610780 -0.504194420785196 -0.497235087384755 -1.014032647508044 -1.106027475551925
 0.728095313375956  1.468881675733013  1.012086508189010  0.102310831885873  0.720835193882293 -0.704118743175526 -0.256492657149916 -0.221086997210176 -0.076374422314548 -0.307266789963790 -0.411857602173514  0.099599013707977 -0.691550373741963  0.135591207017498  0.041271408562956  0.813715243104356 -0.015559855393019  0.453944921106793
-0.853567459248768 -0.450246440906234 -0.008455808077459  0.350207713945189  1.026948160918389  0.764570564950591  0.967563997976546  0.515153630034901  1.281600713072497  1.415259864428310  0.589213467262896  0.512354408971137  0.091834680739904  0.405347443179125 -0.672122646846463  0.286642234510508 -0.049002130474722 -0.680618854446140
 0.209568149015832  0.753086784389502  0.348119014646608  0.794899741154877  0.439238861383368 -0.140620960210176 -0.082836086690570 -0.413932621267813 -0.316212948495450 -0.363724204226069 -0.101366902258672 -0.148470453514283  0.631350902187465  0.623684369591265  0.261245542862087  1.191992900210679  1.358301430598867  0.311798209958859
-0.613835527777875 -0.118472385147459  0.077248183304617  0.551182900718837 -0.297878365914330 -0.245679639797223  0.396426257437426  0.888501374883045  1.676215160404147  0.970745035555142  0.850147970160373 -0.385918031656450 -0.821260555587851 -0.760441054469791 -0.407844838041434 -0.654060930803502 -0.940575882625265  0.006708052741418
 0.591400736321256  1.295279217390914 -0.263431913090610 -0.246694128817078 -0.489332635098303 -1.051071647508521 -0.746229890571192 -0.667898420452110 -0.238479617824957 -0.435160909406585  0.225579337015176 -0.538395907091030 -0.468761064942305  0.089788431196936 -0.199445735415730  0.976416142245854  0.908025187372021  1.642516410338098
-1.344674334514464  0.391746699347849 -0.661565700551422 -0.249279315302713  0.376824774318721  0.177993937439535  0.365227863420202  1.245274031973388  1.059270409970879  0.975374552968988  0.675621349295575  0.386186598571864  0.645376092070134  0.490865984706705  0.155807837453484  0.583089806369769 -0.427897052724086 -0.408321728800055
 0.488630782605062  1.296717726428353  0.044036550245254 -0.066430191160724  0.305282285961504 -0.562587175075698 -0.121975163671487 -0.135118908642247 -0.246249022383717 -0.162243385569278 -0.696920541396477  0.178144832822933  0.000076709480077  0.322648787497941  0.603114026373965  1.263995574202805  0.425132626285051  0.313210177343883
-0.828137990077808  0.705437618435478  0.253929773077260 -0.399043843629230  0.304202167717168  0.967519946390885  0.979650013169227  0.938283904709075 -0.204864612537454  1.265367812140983  1.771235575851495  0.287301437806808  0.819207895008192  0.548417641847527 -0.535619800510096 -0.250565620783084  0.062077047816858 -1.317922718545729
 0.798614749118637  1.719415235193797  1.132331253384032  0.163140373179660 -0.133606652656445  0.691259458457887 -0.243306942102562 -0.071510637452157 -1.053839875435508 -0.577496855138824  0.680347599663023 -0.331551729467413  0.597504240203841  0.714266086208311  0.559005639970594  0.211574549822084  0.854224231177803  0.085525917594904
-0.532573384657817  0.678169216143772 -0.059933545644765  0.210342751607312 -0.312468155783355  0.962205851998456  0.088491807569304  1.252915863485176  0.669846622963060  1.991945642010051  0.274869494496800  0.327996728626362  0.498420022058660 -0.324373426547337  0.572441075932382 -0.640582294217631 -0.290873477630056  0.027350875647380
 0.525843702550832  1.449728442856033  0.296687637670746  0.625304406728420 -0.629708080962954  0.296204823662924 -0.817796475998264 -0.124544166392378 -0.066586238040518 -0.307135036349297 -0.365310343222543  0.067440910090260  0.291430540001099 -0.263351446557381  1.172359467937144 -0.151581029801743  1.353284309007321  1.292581611177225
-0.700063945856428 -0.503507575878087 -0.077547549838212  0.089176391755822  0.005000692388168  0.279124872414396  0.349941620470099  0.381298717753808 -0.175488820348935  0.592269757008254  0.658936614164911  0.417048794082626  0.754637987658142  0.124229769070592 -0.322696517639245 -0.909734132428971 -0.322703055697897 -0.545648061982904
 1.341270083502558  1.075451814959633 -0.000274948484233  0.514287814988680 -0.212796687034335  0.113186548089190 -0.523644173485894 -0.117277591592331 -1.387825639254013 -1.006673984582423  0.075906847830059 -0.096076807744739 -0.376312943450701 -0.196973995466300  0.421342844634734  0.092601960550951  0.546146625211985  1.500497323349663
-0.735924993240505 -0.756516576712472 -0.899374853572558  0.622548999902615  0.170528327380143  0.898707920351709 -0.058915745265540  0.492204236832067  0.572678683233001  0.189477612753540 -0.121019470674667  0.250576230956395  0.984674923969294  0.811547963981861  0.202293618512941 -0.771198113781624 -0.741780574743275 -0.380488516718993
 1.002921427145184  0.223595938689553 -0.194888757132955  0.682960140256738  0.077623229745684 -0.213204648555096 -0.320467158748552 -0.353965761353928 -0.967991363083092 -1.032284875350409 -0.934363664622354 -0.172741567861037  0.434119142149695  0.894629645682944  0.301258384811938  0.468030988961619  0.740549839329258  0.702408398443443
-0.337481748577025  0.433997006105154  0.493011252390179 -0.048336619558882 -0.385613719707625  0.626775664566662  1.304498547673504  1.460596175623413  1.511581570445669  0.289238555157029  1.492317316678231  1.117444357494695  0.703862303466432 -0.260140355035209 -0.214421002010566 -0.776424722155458 -0.598631898764626 -0.377140425453728
 1.828435707504876  1.309496345410402  0.991959575603392 -0.476632613418911 -0.571748351156593 -0.196604245680776  0.196661794702501  0.450752155760820 -0.659712821183966 -0.631125714426947  0.195550561379327  0.927342250284741  0.649512934937655  0.449995126460260  0.271684444693424  0.158636222328275  1.096430336824143  1.668242522764567
-0.062567816615456 -0.180942306144875  0.302489124560166  1.019003999110806 -0.367141606213500  0.438327883096213 -0.291006150525253  0.596074232707668  1.008209459746397  0.581438468155699 -0.043730077100116  1.006162535928495 -0.493250485732332  0.105344970521236  0.272827562856524 -1.165144700838368 -0.642692099178846 -0.798282032765550
 1.171681452061731  0.201978413202209  0.236707743953059  0.580865733240729  0.131539670064042 -0.521925815650035 -0.905944563610509 -0.358998812017962 -0.412014326952338 -1.274132890693407 -0.707044240744778  0.330757466245546 -0.686898952386519  0.595595447654611  0.982477936324158 -0.192296250297594  0.694992964430088  0.746052113546558
-0.495460976033942 -0.817463168221003  0.305299983202708 -0.286105954307517 -0.223152444152738 -0.012297456874085 -0.095069900248504  1.111959045007654  1.290548652146954  1.526650067542829  1.128911474365352 -0.254074139175247 -0.346347603747734 -0.050535759403385 -0.186879948593227 -0.836221547334144 -0.402533749095058 -0.903631599768693
 0.368774478540239  0.881696241184902  0.087236480298856 -0.650954782767466 -0.575619479923005 -0.752584658312090 -0.985229043764293 -0.393070534418295 -0.156515763461481 -0.436847411638486  0.750966716432796  0.008862619101284  0.031152047741942  0.660255840129643  0.231013114395625  0.373119711601229  0.922503152243784 -0.089359191474403
 0.028098157908403  0.936560029778499  0.771459711820285  0.064695452292684  0.866085605627319  0.514558000607053  0.455653230563805  0.276997257850459 -0.021079371827312  0.391306961457279  0.422349795427099  0.112789746414337  0.101413082953794 -0.271564076400251 -0.415050857348261  0.846662000713725  0.379564051626455 -0.204279212883045
 1.451874796586846  1.564012359148574  1.387922751886399 -0.078748749762204  0.682813324716002  0.084865954599792 -0.400559306918187 -0.772685795634228 -0.979114591680438 -0.916011987207960 -0.498914756823673  0.087727699568642  0.024950548010763  0.073444841724307  0.435659763421819  1.337606905200901  1.255349628236401  0.680608276292027
-0.780215151894912 -0.985382898456296  0.030907559365235  1.070205719204768  0.636872222388971  0.692934558724378  0.099007624259607  1.404016130504895 -0.050176863505880  2.007972700335081 -0.169831019165835  0.507472856944309  0.365228893945213 -0.423508150394201  0.360718868063397 -1.242019631321400 -0.732619902224249 -1.025501460577924
 0.446569794714557  0.079801111822853 -0.140080154601205  0.816818219806472  0.251770157186026 -0.014906664045766 -0.833422844001741 -0.915611031724830 -1.005791831939688 -0.101998191145590 -0.429140352503796 -0.517965668483459 -0.357212685301923  0.326999565649108  1.157940493318907 -0.320624392777663  0.083361226888282  0.371683244612926
-0.354042633670648 -1.006283619159629 -0.316804927459664 -0.281662408527150 -0.367237653622167  1.202678568854410  0.952297568672070  0.675264811250527 -0.002389286667876  1.560250339019726  0.948271517860464  1.232367006346293 -0.012348133733492  0.462975149807347  0.958989672095768 -0.380414376807238 -0.606807245364871 -0.750594335973908
 1.612848282858855 -0.139422835084953  0.616658061392458  0.536902165629916  0.256320006457047  0.604504059867491 -0.734611622252087  0.271700346894678 -0.746601895538935 -1.007743249107966 -0.614530199460362  0.390077838196582 -0.614315647472734 -0.086317312042877  0.996977920920065  0.221069031777068  1.179300783946298  1.204530399358218
