-1.111497695484915 -0.454699585074636 -0.743935548530855 -0.007035550482380 -0.247688526110916 -0.210946039113271  0.115957974515556  0.482321534761594  0.559859091925022  1.231810493446622  0.361305916285446  0.828128240662263 -0.416254121619253  0.671881052058508 -0.658349234015487  0.271546570624719 -0.177058801970248 -0.146375372265404
 0.600518175606871  0.337136143540412  0.785040839360558  0.884994965484735 -0.166914427673049  0.071683618016021  0.057845518940197 -0.006964373167432 -1.066964871030153 -1.202772508206389 -1.214996414226980  0.035362462870404 -0.869017813365210  0.202989837439180  0.683688675746873  0.573998517128264  1.129351706424267  0.429093464730835
-0.318177835210307 -0.119095645189141  0.705113093932016 -0.506838308118741  0.768879304423226  1.074451405076621  1.318977115760329  0.027716191418402  1.293793674947340  1.248372694824263  0.079302353127746 -0.255527981987583  0.565786782371134  1.192818872783134 -0.322506081033513 -0.517337167157688  0.552625493903374 -0.343292437405036
 1.672056216852950  0.948064554640602  1.411849832819966  0.228657975764215  0.805736842362953  0.493277631544542  0.925390954233421 -0.216389095712772 -0.504942029497811 -0.507114069389486 -0.905782576652134 -1.071896168253379  0.071600028178243  1.009073931053533 -0.301035757586685  0.779059853619153  1.302520591130223  0.494672905000250
-1.317088195809444 -1.129515261072338 -0.443684212156522  0.536775744388829 -0.453734860518800  0.820429903246447  0.918029934649794  0.739069554907503 -0.122076840753888  0.323214064228052  0.366221131943049  0.501844768710334  0.424455352152620 -0.546094876703655  0.129691581111059  0.452743515028430 -1.187484591537484 -0.307860369444262
 0.480695981472134  0.210007366098897 -0.176354122425561  0.459517776178399 -0.417267856167323  0.587822225506361 -0.758512740323058 -0.055424742480824 -1.300725428265603 -1.274649775281713 -0.101477840043613 -0.644138826159790 -0.494412818447692 -0.381452517503937  0.876743405982999  1.222821035238856 -0.014969908120839  1.258518268715744
 0.166953529243707 -0.665414246845277 -0.282344829607896  0.034002138009883  0.531604730936513  1.244853439829525  1.200323717605776  1.247402888526886  0.212980866754320  1.018885035489022  0.096325171610209  1.293412643877577 -0.133345067494037  0.644493487814399 -0.726485993263514 -0.287574554544844  0.293142778445403  0.130942539721549
 1.938760970737566  0.151153701454632  0.118041702077417 -0.184387196020244  0.517799946367685  0.464231551395795  0.543736859676034 -0.119711416233624 -0.835684298597932 -0.059386864951243 -0.814874079232004  0.700713717636889 -0.518807056091558  0.947154695845179 -0.112382041958126  0.713850152585541  1.235294999228992  1.773746044354332
-0.689059694276942  0.000775333586638 -0.760603307110931 -0.414231083513457  0.892507152961013 -0.423397094101740  0.571526932067237  1.352265169007340  1.009322453159813  1.378646775934183  0.178727257078679  0.287299345379677 -0.284492358515821 -0.602712837891008 -0.756359242436509  0.213994211407920 -0.269704921500870 -1.187867115734111
 0.503382726354644  0.801583026477245  0.210916922717269  0.405915240601250  0.460906402201424 -0.798937868052828 -0.485332958225479 -0.472785154825975 -1.028314338087169 -0.643314661243322 -0.882199211547927 -0.442978223517070 -0.067465379112425  0.119887044694975 -0.231764037791911  1.439674526744796  0.379723402268775  0.507299106066632
-0.180045294097639 -1.018497681938931 -1.305118008418216  0.277160166483501 -0.086138513284406  1.008479523358722  0.674059140588695  0.106495669798448  1.262906125677168  0.599507535965913  0.926993828487977  1.069279903773186  0.706203117054915  0.075751966065027  0.050558095959897  0.898164200609764 -0.989627853307269 -0.413348452741221
 1.905467284660896  0.466627674013929 -0.207973513041399  0.996675684612824 -0.086213544012477  0.807211600810707 -0.604905590209343 -0.412811930576067 -0.734700341656046 -0.973862340180374 -0.615366846538438 -0.254670007582459 -0.364778776447510 -0.310688685609573 -0.178760564484861  1.382144407747917  0.425578004987723  1.058885482100919
-0.281322316186291 -0.472319799185486  0.663733120058665 -0.213447830957581  0.001833664600605  0.162405239657434 -0.437915399604549  0.742716706372873  0.281515368658970  1.470109544480692  0.156200749807022  0.292173071500589 -0.253745918366900 -0.533536361459793  0.004572108572296 -0.123968402345825 -0.416126634008639 -1.072481176022650
 1.047582699115716  1.108291812516959  1.239334433917995  0.126296611944271 -0.221365873460214 -0.602260953799483 -1.172721227650223 -0.398033156531859 -0.857993342398036 -0.709020223370374 -0.401300400122399 -0.193852566070764 -0.046532414231479  0.073095333404757 -0.025673791963553  0.927303631751007  0.378173584766118 -0.126129213683660
-0.801818071955304  0.615623924621826 -0.014860515645293  0.333500370583931  0.110894277465088  0.464112730491265  0.603428407264855  0.956315197115062  1.310104594937496  0.667600146202374  0.192266081671198 -0.206222778937477  0.068094916035796  0.060010532111671 -0.828532527149028  0.457551067759028  0.017231681411622 -0.875590368356318
 1.933324483480935  1.434337942425150  0.557964478974893  0.406024757434188 -0.319924332298920  0.197533276713616 -0.212977903508522  0.034728680699814 -0.617211918731349 -0.454019957576506 -0.760529524202737 -0.169242213084486  0.150234072458585 -0.001059230934899 -0.339866269920514  1.302352500361173  0.819793964201960  0.485790924693502
-0.295279880564608 -0.475835487470652  0.583878719731921  0.773272131156345  0.342601442495796 -0.242095679216615  0.997300013459561  1.587226230563969  1.029174462215082  1.848853314947238  1.195244007571590 -0.317601419888541  0.073369507742546 -0.559502842829955 -0.345110529400338 -0.110939998103393 -0.341035526308114 -0.460549701613669
 0.654723608062357  1.564455770670920  0.694872128279200  0.792387293777266  0.324815317661210 -1.013037821972085 -0.598713568261943  0.025343913516459 -0.780218427633194 -0.489752926358521  0.738002950734516 -0.415295397781308  0.544444270438321  0.203688078786320 -0.302230049821702  0.244149288479621  1.380973658741530  1.281895601319466
-0.595859094618961 -1.111783653194953  0.408917621271233  0.817587395486536 -0.328232705564984  0.537165832117638  1.141651268164297  1.067338608871306  1.182488659425231  0.634194366731219  0.236860607772692  0.850526948784810  0.334033268610774  0.795982560058988 -0.251323096596092  0.124581704365211 -0.091704252432922 -0.795751407749947
 1.804611099479505  0.237583581290079  0.804940321389249  1.030572981005038 -0.291751160710548 -0.284120357583446  0.546091071889942  0.239223756496111  0.113225116503124 -0.765778484666891 -0.296021338481192 -0.473150609927779  0.234398623860849  1.097842001501557 -0.248588358945532  0.953194961820435  0.821177754665736  0.205830997050206
-1.020316573672535 -0.116341869626844  0.355264189660659 -0.309090040635222  0.438385385211615  0.017648794064395  0.337825511894590  0.665769231779988  0.544919814149889  1.569639063865289  0.000526687012633  0.924975304640277 -0.105777103539068  0.322730921483746  0.567994940431729 -0.029236242499739  0.340837869075309 -0.829640456322847
 0.238021448080315  0.392191140167693  0.964092693897531 -0.208836146743778  0.139872836386700 -0.056660984818299 -0.357256005955531 -0.005516535314831 -0.268436981375934 -0.317063525914252 -0.716487594934346  0.649519101618191 -0.208352236780430  0.284533603460792  1.152704598779912  0.427965511588508  1.421866462623997 -0.089514327304439
-0.676615151152881 -0.615959857890716 -1.212841078894472 -0.237408516053070  0.883801311635858  0.644703388071529  0.800121221371236  0.667266370754831  0.986992043091345  0.774173265228647  0.428944898481013  1.436943701036436  0.868613877095596 -0.058646009179031  0.683178880849464  0.206751948432082 -0.473259675638534 -0.292825152529563
 1.924643439543788  1.176291187729988 -0.379315117151539  0.398191498224631  0.935012098477106 -0.707964502755405 -0.669803493560731  0.073687781572993  0.129099706302469 -0.924352097538973 -0.490810621910670  0.196939004217743 -0.441909509969800  0.189163575381302  0.880799615907337  0.363890846956764  1.312610139818667  1.657086277836934
-0.302818488678297 -0.066056014286824 -0.507345370812829  0.249136444297912  0.740867173989356  0.007285457799984  1.035741959306267  1.147862050124544  0.795676951201547  0.698935199654969  0.880613839704726  0.025100322611103  0.672882413478563  0.270429149571853  0.085513078061415 -0.066683502133823 -0.376141331231742 -0.087541658114545
 1.357574160419708  0.967841996261386  1.016826270481825  0.179960327149526  0.633728842597897 -0.265326518226545 -0.197846973666136  0.116863004161449 -0.496267986435964 -0.953232177497437 -0.748351243142591 -0.015883085417597  0.613147713566583  0.525243050888694  0.781118812431696  0.229416843670701  0.327444545929930  1.259764785708225
-0.251718887578426  0.358235013973193 -0.194631823006472  0.590463937415347 -0.891051837620156  0.629902837683573  0.316181976612596  0.384813656178410  0.704512884331237  0.270387257061902 -0.034480687376412  1.204751226952141  0.025472554504792  1.042926238816094  0.559801959384318 -0.170957797314151 -0.539008674864495 -0.618099573588168
 1.994022181283129  1.318895654705396  0.229685416170935  0.676859017132392 -1.102083643900759 -0.485677357947782 -0.280819465144333 -0.162326577337985 -0.575282610448654 -0.937422442482988 -0.558383301101946  0.477127013143463  0.193246533434056  1.010611919297504  0.878612208983462  0.322463464561105  1.168476547218652  0.177863083092572
-0.797532771171254  0.095784149248526 -0.620229344802427 -0.739940035408588  0.104944629144376  0.574820455711354 -0.076016571632178  0.064204518148030  0.617211531889403  2.097397659665831  0.667141883746046  0.143928191051995 -0.085235401949345  0.569011816293488 -0.641413967588982 -0.284577874835546 -0.402204274245396 -0.289273619886954
 2.111858437100061  1.222163671547083 -0.153246460777140 -0.437513995117091 -0.043112726526182 -0.595508459296904 -0.265123830753753 -1.178819673014344 -0.543161930326018 -0.773531529687025 -0.012885869842372 -0.308340384592889 -0.445784475153223  0.310731758209192  0.509763019254988  0.766292153476633  0.537681706121742  0.988328639520363
-1.282172770582229  0.222974647479592 -0.396563714001216 -0.275054411743140 -0.383599798878413 -0.336800443014904  1.104672978672667  0.851746962427084  1.320314466795510  1.940024093648882  0.598114997633297  0.364920277347259  0.684726841628771 -0.540755314314808  0.132992396926595 -0.903138145012530 -0.048592512785418 -1.031285982546194
 0.360017461795784  1.584756153848836  0.487752052504897 -0.143096598405089 -0.463889664249895 -0.654128777576655  0.496353002759825 -0.170542631949838  0.389556831526763  0.214455931948036 -0.061711232432826  0.170504816832476  0.147655612973224 -0.455503510157602  0.086854864064998 -0.278492175750285  0.497287896410440  1.712616532482544
 0.070211984935969  0.397827975321166  0.300690167252907 -0.430228722110561 -0.337802941548076  1.141800186668580  0.576095872242062 -0.038768089623225  0.211605599425406  0.819868028752638  0.554344984151554  0.578583458785705 -0.404912534148022  0.916352665069117  0.071921555985001  1.009228604838532 -0.199055702518477 -0.188533776523346
 1.796775804762501  1.605979140623723  1.300647457937963  0.216815187528249 -0.441435592015906  0.737124575119097 -0.692025026408375 -0.758971881515819 -0.422883102380624 -0.863826307111081 -0.565346169207012 -0.386350903072458 -0.091822664728058  0.646166561513080  0.182199774122453  1.483017383064643  0.431326571517857  0.627466881890766
-1.048954983048909  0.197209799761496 -1.145718979614672 -0.119921477979607 -0.084790093197730  0.104331945664215  0.626076011013781  1.106554576198887  1.362524752325001  1.943423506044171  1.172107446131436  0.675071919743816  0.337054015348284  0.385487353373795  0.281530864315268 -0.489096622769021 -0.309775874094841 -0.926552276660088
 1.662561287579964  1.165227038111911 -0.206424199628089 -0.274512210029162  0.394139126123955 -0.556040049163885 -0.620190846887595  0.153109538617810  0.056018643074207 -0.669505795654111 -0.021922955990532  0.313492228913277 -0.445741513295091  0.461975453501803 -0.003524322308790  0.381892887973262  0.962143538291572  1.018512205055652
-0.655293905942630 -0.167828645203550  0.054205116079871 -0.050045724776310  0.027092734012366  0.710981806481164  0.915702027244021  1.197765553594699  0.098483700134643  1.704977547221698  0.911476001255518  0.055711436515815  0.595742227956184  0.426698877609516  0.171801050484134 -0.591054997616952 -0.241018350366698 -0.757413355873004
 1.583124113109670  1.514189784806573  0.972132740416720  0.882645812399183  0.362010732434038  0.485265672371659 -0.082204987203360 -0.096422188196997 -0.316058054435241 -0.674307152333573 -0.888924886869738 -0.449202348095403 -0.236459681611763 -0.155280383322424  0.300448559589148  0.247834978812849  0.616584300892466  0.958966160659473
-0.465075652681093 -0.653623264696278 -0.276137246841355 -0.352475079658966  1.022786443759994  0.462181705284534  0.830238467554677 -0.030372320968230  1.499254973864673  1.005277069509804  0.915718831812769 -0.148663181685891  0.630237520960010  0.946457902701090  0.008796568772059  0.231379375800700 -0.672444960301919  0.113502624786688
 1.673982906153987  0.995626711455865  0.564158219931936  0.219580309823080  1.045504536515852 -0.462025033061471 -0.215904571286944 -1.000571382488592  0.012324083906393 -0.974357566342798 -0.509183466599995 -0.216441581153915 -0.207845913144753  1.138609809760246 -0.229445380020996  0.855308534885671  1.060883464171405  1.259391224397219
-0.869120277000407  0.443394906310745 -0.349480982911753  0.260327103899570  0.453562731587584  1.403851523418891  0.172226696801977  1.234894149317403  1.403570654129218  1.605324230646365  0.097530619230549  0.470500150370329  0.336101345494257 -0.505702694377683 -0.678503766551984  0.331908165911009 -0.322578084842341 -0.125467712809777
 0.466176678668573  1.614340589823531  0.307649313980922  0.383840905888869  0.128873396774475  0.856714735377656 -0.226013823986973  0.098400698834990  0.105236863703974  0.065139372192878 -0.612366316332339  0.100622342951032 -0.266698585215627 -0.302241502109746 -0.318251071856553  1.400232887468021  1.447958916476337  1.038408558333642
-0.875220832138618 -0.726378250178261  0.408592098080418 -0.320484560929796 -0.166654896928546  0.515883831678109  1.138111062201596  0.799078240294240  1.272902237442612  1.725260598615926  1.696723500823007  0.254747641830957 -0.461290673213422 -0.188657711171882  0.231674844527286 -0.195846646281902 -0.163276209118964 -0.741278779373178
 0.998420805017504  1.168881174620397  0.798764668383943  0.159670910606655 -0.192935818639695 -0.685167474700820  0.456929834688922 -0.951114081315422 -0.799825206246545  0.000868938965819  0.430218198012653 -0.517133935383995 -0.464374837923542  0.843385140825202  0.307487694363530  1.121881881981914  1.132414321380977  0.704409307848572
-0.217211065103436  0.284603661024924 -0.486048319533125  0.496235625856615  0.505623747613043 -0.389310649688144  0.434415998360729  0.102996364126532  0.788119608021026  1.757946819296337  0.121389542835613  1.140697950281483  1.237249863130838  0.201619279530415 -0.622713280765911 -0.443516705628060 -0.790318301201703  0.064364794239755
 1.949603197360606  1.218888619287152  0.761894820366149  0.555211431401377  0.636569085795823 -0.553180487354097 -0.593422826955958 -0.328519858806442 -0.292916294970053  0.029123887000294 -1.188406708765259  0.464530130734301  0.767928229205882  0.240530089312688  0.394524344553672  0.187742647491498  0.258166546745352  1.115787015002440
 0.327412462791877  0.100520716657759 -0.686164037766280 -0.197227611511518  0.935606777731239 -0.300891601641987  0.186331561589777  1.440976909223128  0.871628259702190  1.456087565600749 -0.023143715454247  0.463991320447088 -0.427051551567612 -0.109887522683713 -0.284039732385575 -1.001097449312940 -0.225432993081509 -0.980429048944898
 2.165280376729382  0.698623378722049 -0.073766413795988 -0.410973264350695  0.887666757683507 -0.186408774172402 -0.824141657111970 -0.867028690684928 -0.288339930195362 -0.120858290338181 -0.990296979654305  0.091272398695433 -0.707392685832162 -0.225211499609048  0.725075791863908 -0.122131459397812  0.584590620961153  0.082807959483154
-0.200638996713113 -0.173143727291602 -0.225741112313098  0.558269002873649 -0.283321875398834  0.833211467280161 -0.036960099415879  1.204846551321264  0.079878140098017  0.790095220633405 -0.018159133848062 -0.346451236978037  0.503157786519686  0.172981960392744  0.053448007065923  0.255147674558314 -0.033313594118739 -0.385492879671475
 1.058800261651220  0.679374781054305  0.534040061247853  0.949751303384203  0.118348504553103  0.695442987133786 -0.292791509293395  0.223543163201004 -0.995017788045240 -0.767632940780006 -0.782515095197525 -0.905823220973278  0.048927926734992 -0.007169527777816 -0.256863072148807  0.705502981951285  0.770648088233398  0.138169037472403
-0.468140345180955  0.231695618475837  0.009927493002251 -0.133852399022278  1.373841454510527 -0.208015487233662  1.322525935558737  1.019149927043200  1.629251297961344  1.391414938416013  1.726863029873302  0.445159772556165  0.592953586033270  0.300937165499147 -0.331728162586424 -0.348193571870319  0.629001645618320 -0.811175255388852
 1.474772052824546  0.798224414317535  0.635939625491802 -0.428802004345015  1.055802688411144 -0.270022734040217  0.532553604738056  0.085844906819589 -1.003651620512134 -0.923953781370098  0.713347649723171  0.297348253486790  0.158039858460645  0.491090932163202  0.372511001627985  0.459519298318983  1.693152626000955  1.013963743996833
 0.306444705865043 -0.331440068132313  0.105366122201854  0.220172905324444  0.152871622217149  0.832145389959593  1.344831947381140  0.564462067841691  0.359669776336598  1.233078318433216  1.428227028410249  0.665842625563028 -0.245739498385709 -0.752727060949459  0.303481520973011 -0.421092443738994 -0.158095762570063 -1.014268199458105
 2.174798233967870  0.040987251721723 -0.185130955718506  0.950621516120828 -0.578579920960582  0.089349777704211  0.321489000012852 -0.914265505615936 -1.254108895088143 -0.451349180123878  0.637047585699987 -0.689263186401581  0.457988785913863 -0.061825838373713  1.210696877339081  0.138943277624717  1.444681898312619  1.314983381435517
-0.090170248965364 -0.170997289299133 -0.587600231182939 -0.576481081334993 -0.620687047750911  0.550055133772835  0.897648119001002  1.383136293232099 -0.127127432655928  0.402397955407149  1.370039179537546 -0.084847254460960 -0.058168368781068  0.484799654539326 -0.163475159311658  0.227588526100423 -0.400681702456144 -0.942001764501570
 1.528609855642747  0.492760814504942  0.449764705943709 -0.004748100899013 -0.743491841955540  0.255566801446651  0.168272961678359  0.384684561097592 -1.030910306207943 -0.803709104935931  0.048069444629433 -0.706104188751632  0.104583960290015  0.584391690500996  0.548156041391493  0.624481866817979  0.051465686152308  0.380282826269696
-0.565213299456759 -0.120766573549808  0.084239958691354 -0.067650120674925 -0.208198105380340  1.110434203230547 -0.073860709558586  1.102247900860306  1.206513099364220  1.829595437943583  0.270112818383226  0.218766214353568  0.799610659616423 -0.261002634447803 -0.009582702968838  0.046245090111800  0.055268232052245 -1.090209940655353
 0.702820798648987  1.364387946890936  0.864596703971867  0.600331185081858  0.302737782416060  0.579157175698839 -0.899660121160840  0.114668330624560  0.007883357396259  0.003953809135238 -0.716926093312518 -0.808913422283609  0.730152452068857  0.191950081365042  0.774543247143832  0.974314927229043  0.888985977102331  0.187904362781144
-0.975491825873514  0.443885956586232 -0.216936948205873  0.777736300480034  0.516718330721651 -0.295667915331990 -0.296204111166892  0.682715710506413  0.359862376731337  0.736992160697526  1.213475571736558  1.022829514099096 -0.124157040656475 -0.380104988674005  0.098387137173654 -0.578073665651796  0.299570954755086 -0.148286442521288
 0.319713500510461  1.231328921458889  0.086766795793489  1.077053561343394  0.136125720804695 -0.456977167233876 -0.828138241668412 -0.015340791984817 -0.389252819004190 -0.573020548690653  0.310256174728849  0.585014840467989 -0.277887355210944 -0.344630906073892  0.589133563677243  0.029276958883073  0.923646632839252  0.644492170393363
-0.374043380917667 -0.819830091441835  0.335406514664727 -0.113718834867432 -0.371465764441046  0.534188430746357  0.075765669805273  0.617803431237435  0.241482902710892  1.903976789746890  0.299175760170557 -0.449791114747362  1.069968819685968  0.437957849554854  0.443495583402483 -0.759310597118924 -0.478278808936504 -0.142200024995070
 1.091074424353817  0.147191315945645  1.292620214966870  0.701209979379834  0.299690143895719  0.644988150696899  0.108728173315449 -0.607488377140126 -0.255041460839578 -0.428814969628614 -0.900047071082582 -1.320741131703945  0.426587319869294 -0.085311499021545  0.401679554248210  0.430733478968187 -0.057729487993244  0.160343086386607
-0.910650110096637 -0.618243074585004 -0.238628617159805 -0.608377938976110  0.088303426694294  0.321227039545452 -0.146570809675679  0.810456603323211  1.507041943904965  1.072122605794487  1.200039656070117  0.167433913338275  0.262745318121220 -0.526783063813737 -0.064921337645404 -0.574162007517615 -0.455749254600916 -0.726309226645554
 0.734906015614755  0.323686231773612  0.095631393004638 -0.323566797009707  0.612252078327623 -0.284339378170262 -0.375304704064332 -0.081799161505375 -0.047456000171547 -0.794061631216832 -0.842619623716902 -0.639088975765083 -0.260948738871313 -0.002940156371999  0.532201990543092  0.292045817174430 -0.139846952369154  0.895348951614239
-0.481961860198233 -0.142254146607983 -0.330886726673914 -0.287760731408854  0.485776615126075  0.867704033842560  0.039972148494884  0.678786437569990  0.850945578887110  0.705880487012409 -0.083982260735192  0.010880734453265 -0.230735950111485  0.863348297144282 -0.604484749589383 -0.319587561131503 -0.656742377782365 -1.498716994874713
 1.766841088297584  0.455793930879565  0.431074331301083  0.171618865744443  0.135278894525207 -0.260583383864978 -0.755307743823979 -0.562783047263365 -0.483442250389188 -0.900338206463254 -0.931025900391054 -0.179458192049956  0.130681604623491  0.453748556192451 -0.204704153176889 -0.039533514626656  0.961765643660370 -0.152222635339181
-0.482637988966511 -0.603514254244409 -0.078991324506847 -0.176823652290351  0.488112953138182 -0.320697675630641  0.752082961180950  1.003738108035542  0.984702490859214  1.678879998928200  0.179883694125995  1.331103292045141 -0.369248601966901  0.740240092382630  0.361780135472831  0.584915558406247 -0.798858785923925 -1.133227840645699
 1.589851121287540  1.247961099818999  0.163292676528010 -0.393652357975604  0.169226222083478 -0.733447973122511 -0.526956088347516 -0.755281451816165 -0.374699373216965 -0.263809612089789 -0.260462012058393  0.863039908232836 -0.107577700180651  1.110492526058945  0.719868598474123  1.491063881350348  0.377461881852672  0.731963590574388
-0.763941082243785 -0.587492370797914  0.642213343928544  0.329550067235680  0.539922092936926  0.125092628192600  0.860593493058603  1.273812530781432  0.227759378176196  2.118865927400197  0.036259882668228  0.467266338917445 -0.028735683399651 -0.491651929742377  0.411516565286573 -0.689974286231956 -0.671476417015879 -0.046548432049211
 0.377951282408628  0.731249551046631  1.149919344040010  0.187113079078825  0.280979337169669  0.116261831841076  0.464633045279948  0.243558407821967 -0.597608596417723  0.213433916020597 -0.632941846334083 -0.480067086898578 -0.273299146422263 -0.494521640238266  0.753622454717734  0.771031746017617  0.049424558390599  1.401133690670649
-0.492527590803220 -0.076637265976298  0.167063438247427 -0.132780273254416  0.426261872431615  0.011852255204079  1.088849911457935  0.341998244932496  0.266514152937254  1.753036585241539 -0.057149720644348  0.395044941416068  0.080581851759717 -0.701630978804202 -0.255416207098389 -0.501717134250630 -0.097893423639210 -1.468034790733398
 0.622224965048814  0.385408879208520  0.808484776101432 -0.241205802793176  0.241231121678342 -0.671336109571383 -0.418954854862094 -0.981358229041364 -0.755137719047800  0.006903234931331 -0.445453733966664  0.283813107970649 -0.297113726602781 -0.478865887517961  0.441000940336686  0.513268614561406  0.906763590380343  0.013670608285232
-0.622320088871561 -1.230106082473004  0.385060951695046 -0.146055817994855 -0.324005235325884  0.460034405984034  1.339676703763511  0.471930054535717  1.086379403068824  0.902932786294651  1.445036294775426  0.976141525874986  0.241419906929047  0.179115131321841  0.876947101044995 -1.172742875736997 -0.841432880440783 -0.741440713987075
 1.333391728685161 -0.107680956334963  0.897056795787097  0.738829700774376 -0.334658588018057 -0.498370600787788  0.404904617172014 -0.879745144603874 -0.346055702242570 -0.357010587369529  0.001228609823875 -0.065737850037608  0.194962768631729 -0.297119406830857  1.506452735658170 -0.217311525382052  0.729540520791205  0.248188398479437
-0.948923889731545 -0.090526062789762 -0.324934279010992  0.433537916197604 -0.191350714506799  0.295355830202134  0.696508556957960 -0.216950068387155  1.355218058172427  1.750957045014641  0.267457576534281 -0.187143849112817 -0.157975800646661 -0.221439046844007  0.175062662857030 -0.281560933867514  0.305348883667768 -0.714549790980579
 2.122079195836848  0.667232097286769  0.437815636870143  0.441632502802160 -0.710875933969569 -0.510734582326415 -0.502195615249788 -1.174877087467320 -0.262328185148877  0.498937676877480 -0.798822690557650 -0.005741976803005  0.306094212387808 -0.279373003635508  0.753855988586296  0.647133845180973  1.670615628176352  0.378921576422678
-0.617728402715042 -0.355563346234213 -0.590432364253980  0.410077696278225  0.132957101079106  0.727020399480062  0.396547837873491 -0.166756623954693  0.475664971149065  0.426361558493854  0.846630274245642  0.209738734312709  0.948334376309917  0.398697702781043 -0.519430105871091  0.098511278243419  0.566094485226043 -0.663949721574282
 1.177590147429944  0.384764547702619  0.765345226275328  0.615957579220809  0.095283142791795  0.628945063197959 -0.085877291476525 -0.577750290473373 -0.181480892313868 -1.125157333835271 -0.738078388557494 -0.338643507877550  0.707878028631646  0.346986750523025 -0.370563814367306  0.504978855792037  1.190396187027029  0.106693641210649
-0.797902008250757 -1.146829827114985  0.745237134432229  0.321907655362526 -0.167105176451244  0.160382918520813  0.910353049348284 -0.021264130042102  0.992978951538001  1.373694528036975  1.536181051992071 -0.001324641367948  1.281622770557723 -0.196974516156563  0.376972040291123 -0.545997199467197 -0.165660498879852 -0.332598030807804
 1.746873583568932 -0.122588832135674  1.317654335943484  0.576593258898125 -0.446820842539642 -0.328212501628567 -0.330712786993559 -0.661498305094445 -0.445815568587762 -1.003055712887953  0.719834212461757 -0.318801393283467  0.884346533359754  0.306544898073985  0.694192188548965 -0.024756434235965  0.877561582412450  0.522161510311240
-1.296242318715489  0.617734886699506  0.423962910952658  0.039466364880619 -0.813378384267839 -0.073656367697008  0.788581846830035  0.679137507813365  1.458430472216826  1.082907699588333  1.576957854451789  0.300657865705106 -0.136369773905670  0.146574440581078 -0.613804723577272  0.073153845989018 -0.491557074899037 -0.465975831313635
 0.885798620838700  1.607748648407375  1.254790056313841 -0.166826550109171 -0.803681231707365 -0.563454731726398  0.208664757888350 -0.546445560245945 -0.322504560825155 -0.282730489607733 -0.219810964087574  0.309690253964211 -0.510247924850863  0.477516606554823  0.422981593810121  0.578928613113396 -0.089183567496728  0.544943615872211
-0.666795435771393 -1.139288012140995 -0.008665714351368 -0.234794997585975  0.568405806756151  0.924729475852080 -0.029452206670654  0.818143868376830  1.384786418877299  0.270465784878437  0.810004226220479  0.517519932640914  0.310175576151586 -0.507145564236983  0.186202920266192  0.092503135260447 -0.359368683880822  0.122900444032803
 1.191826484133457 -0.267803969131521  1.096062715157560 -0.496889298546579  0.128027610776153  0.607831970951273 -0.993545353269130 -0.191119205617331  0.299864180503693 -0.839881438654767 -0.750866261977403 -0.487893651295218 -0.117324440127334  0.215301505675343  0.809253111685831  1.052367756509604  0.431821107604798  1.222995417598601
 0.122860508816832 -0.868492772931899  0.082081586828027 -0.389049475409649  1.274165478423271  0.531768849998953  0.308750532185195  0.062060816057342  1.524047026105049  0.374259426773758  1.145500753166842  0.301579174704083  0.163355831430848  0.634578790213947 -0.208961750674520  0.085253354992538 -0.158034159421997 -0.066429607534826
 1.559346289577156 -0.230489565996210 -0.120166322526181  0.158254384057744  1.018788380557635 -0.042052740546278 -0.707639923116616 -0.964456427540009  0.300798696356314 -0.588213220833601 -0.055284550431689 -0.292949146027184  0.393867219872107  1.060925938895528  0.624723972961634  1.071965423808329  0.985200831528339  1.734367483986105
-0.945290450359804  0.088518662225706 -0.552149565886661 -0.392687707037127 -0.120334638516719  0.139314345227813  0.057311526866901  0.107770653940769  0.037887676569422  1.016896114782149  1.176139408438436 -0.146768330753509 -0.407983656210819 -0.344105131175032 -0.278241010033704 -0.166893730459732  0.008830812437237 -0.448553235967014
 0.443207779052915  0.650434128727935  0.582765315537564 -0.212040201412001 -0.412024394212506 -0.101901997461613 -0.337719885993532 -0.607154864016929 -0.589502559685426 -0.577668925155314 -0.659520675746406 -0.585276116715413 -0.510909495447972 -0.320253595357691  0.556222705636991  0.214793703016328  1.113660817721192  0.455948037158549
-0.020442614369255 -0.961971608123940 -0.831304179081356 -0.206126671614778 -0.226205312087948 -0.188716165834759  1.144644173101748  0.678429311131454  0.040822713935512  1.940289107103933  0.631896805529100 -0.176003665177485  0.470768433213634  0.949208594494755  0.691944844161365 -0.036512140206772 -0.818873722444953 -0.610562798733486
 1.694544360565835  0.187516080800605  0.080865186218307 -0.044380928444217 -0.072545429563008 -0.191168341750699  0.512805150928993 -0.738347213861676 -0.449929188587725 -0.747588154324935 -0.341716744238040 -0.770269510317715  0.285990761945378  0.895605387392258  0.691953997030865  0.041490501826645  0.544270766744953  0.098853830074254
-0.934097146074434 -0.071189690036460  0.599426934987193  0.558047593620301  1.173746308385754  0.584567969824936  0.678729926525556  0.182536386777513  1.532234153382599  0.578590277200860  0.270776563191230  0.330360730971692 -0.257474883631315  1.339020161931882 -0.216439834424142  0.293522524563461 -0.671636806810865  0.140429183566870
 0.790427078080902  0.938363760940921  1.000592600048825  0.878011417290526  0.729761070249169 -0.505969347500241 -0.646398780527910 -0.495027767388178 -0.558171515634766 -0.472839187634112 -0.352389549752641 -0.649746773885173 -0.033582267820051  1.272090680446476  0.900668281738762  0.979944522203104  1.365532177116422  1.691549477473554
-0.159966624645002 -0.678071340153044 -0.415190973015911  0.719211391188141  0.887897058156117 -0.249195575394349  1.233879578419476  1.019787378469160 -0.170194527000163  1.300120858118765  1.801271613319233  1.329310760576737  0.558109583702097 -0.132411283354026  0.480936417295511 -0.757642497861084 -0.281033387382395 -0.649850011190029
 2.221087856885707  0.912873805442937 -0.000513453343561  1.422018008156288  0.679331363775076 -0.605910802152584  0.070261673792702 -0.794454677301303 -1.264948441451208 -0.760362340249365  0.443593772168125  0.208374464441592 -0.480541445127358 -0.160033112217605  0.734844840953176  0.052625322469956  1.184878265875490  1.220861660433936
-0.891351480504581 -0.915368324464506  0.175462707295566 -0.591793804123881 -0.084576688386684  0.866130022906901  0.255634330301610  0.944572963800697  1.200573323646276  1.810610561657284  0.810513297639200  0.709046935786032  0.554189824964856  0.814773490814422  0.829344001761223  0.088751876816070  0.004197503849752 -0.490425653716087
 1.670194546754486  0.032354828199066  0.642371882395275  0.136990234224053  0.467611078444960  0.651290661355003 -0.595873634980643 -0.571016683253415 -0.332730745664544 -0.510710742552172 -0.103041158321411 -0.152096592750079  0.002842163204270  1.007746596818100  1.378727978208027  1.092825742569223  1.206034418157371  0.712708989138111
-0.527722385681024 -0.221684778031396 -0.734645637013721  0.285465425686305  0.702245156813149  0.162582939138291  1.064396632943088 -0.154558399592713  1.058675406106136  1.735485614619741  0.669064936049501  0.214521136532636  0.114094556173357 -0.656315832176853 -0.316885863898903 -0.807130250214200  0.413279937050374  0.273422641565392
 0.694788900619212  0.320700901020139 -0.195534003349480  0.757291947228834  0.607911987503564  0.099264733709637  0.029866443712101 -1.332834506804014 -0.398647241071907  0.102497601438875 -0.506545182658321 -0.288808750238150 -0.003544921805699 -0.531170610467586  0.758071453121643  0.287259850351476  1.441471723549452  1.453693032430100
-0.388497253774279 -0.389448890627840 -0.245466227168010 -0.433108729718480  1.260831356313308  0.607865195664208  1.054334670291491  0.518449736288297  0.853725232510615  1.464279989977372 -0.077175529780176  0.624167656131373  0.458002100742697 -0.370427806834929 -0.877531250629278  0.614572588122160 -1.074313768194525 -0.280469302184196
 1.917141840217732  0.807447227618937 -0.160241667587401 -0.511306899836052  0.917788687103793  0.437548319090316 -0.054646309016640 -0.919685337293299 -0.281802477164140 -0.804746383465683 -0.572408390677277  0.136756276747934  0.089973030004603  0.571454060643004 -0.228784992122670  1.355381620256562  0.048076143926177  1.160691902735957
-0.526795658872703 -0.852966316955498 -0.296758268453176  0.293268792945934  0.653689724281190  0.803880789253936  1.137504512250422  0.670894171361025  0.670647466542355  0.546144658201364  0.585349601696725 -0.084903739466999 -0.307079664937170  0.308261644563116 -0.268842063287030 -0.280754999267510 -0.813841986774093 -0.525002474890881
 0.482187056175068 -0.222038239212749  0.597568080529982  0.511338750813356  0.488610994491988 -0.449220107245334 -0.456371970926207 -0.650141552798703 -0.769490149593491 -0.502938365272279 -0.076390457852249 -0.308747156514102 -0.426607441425770 -0.014573283937693  0.000539866102200  0.344156698293656  0.790684905624781  1.332989635781843
-0.269483124719627 -0.354686378522723 -0.432113449770030  0.189347875455790 -0.208156413330337  0.889362730227184  0.471428395396203  0.903871535250640  0.004879402846165  1.770554400011003  1.071357067244011  0.379182589205411  0.870920253031813 -0.465934129725343 -0.294500255159023 -0.168514646034250 -0.218982208642519 -0.108546028886518
 1.566235495424370  1.094755089983068  0.559272338026873  0.147546722269127 -0.058409980677112  0.654461879886404 -0.717198514136064  0.370949680992309 -0.423663475958314 -0.885083792649669 -0.480447055622101 -0.403645193684737  0.641747189697178  0.046632286822968 -0.163330449052299  0.069082587879989  0.195091112037245  1.421847533994986
-1.021811751633518  0.023193272650639 -0.153769404526566 -0.332117942747048  1.214960435065066  0.272728829782080 -0.071307540234350  0.236890852102990  0.267075447255061  1.454584763027417  0.158636753169836  0.454628632083096  0.022768982014264  0.642822021562657 -0.293698595935039 -0.686747140980037 -0.941973988519793 -0.974372400879339
 0.451878311939171  1.557579568208822  1.097474817237476 -0.255256011484498  1.039004123617283 -0.538090194905644 -1.039891806286413 -0.938824340451538 -0.582075737794783 -0.413771833778512 -1.173384407743891 -0.303129082919824  0.158068366491612  0.337174743062222  0.584222352466760  0.307732280961887  0.610894695968842 -0.043077838101808
-0.264295526236138 -0.554409840342738 -0.172628447722040 -0.443915884175511 -0.445534281269027  1.189220139440095  0.617875023333702 -0.158875589502143  0.128710666871351  1.515567342979326  0.464769420082489  0.761417909583801  0.696605586181864 -0.499222017298608 -0.369311323762172 -0.016340618594449  0.903432494602684 -0.471973604997119
 1.393943815183993  0.349132018065590  0.936270095294135  0.416698138546000 -0.191692724480577  1.043940202365113  0.506245068228274 -0.750604196039669 -0.314843516091974 -0.616267283714961 -0.914120342617194 -0.110990751781907  0.280997504726856 -0.688966939046321 -0.428262501806803  0.207639194181613  1.406364865941004  0.294203627454707
-0.558361901812743 -0.084121233278333 -0.598304474791819  0.002483999845562  0.321735023057214 -0.232618401260533  1.151096221107395  0.465650106833856  0.044950762704042  1.509269448436660  1.509573691026977  1.033373092077011 -0.092970508672498 -0.747393143100759  0.363270969887816 -0.668519726788760  0.144776927099211 -0.467088099914523
 2.056159634235112  0.713721838844114  0.334913798034237  0.260336498391843  0.354060107482437 -0.156059371361454  0.830971576942600 -0.126821070588698 -0.390203768677638 -0.269573543958904 -0.836325178485336  0.089404128413350 -0.299910739873668 -0.918095029550975  0.364755355811261  0.780090273741723  1.280355951909630  0.130688100005695
-0.879815672662099 -0.137607354582673  0.266326232238475  0.116922530327138  0.601039890485192 -0.053467759537159  0.078964220627863  0.961313655931871  1.321029878398996  1.560793992075633  0.425585453021420  0.366076588618969  0.939189615769725 -0.061495856501865  0.364345158751031 -0.206136913543359 -0.343689416032369 -0.136184713427948
 0.787642091931594  0.979541067499236  0.857634536663056  0.786774730649429  0.971198654273095  0.166874001015874  0.049039074071437  0.606439323619305  0.025078890212788 -0.107176276659376 -0.652500743585683 -0.602035490172021  0.450965413882366 -0.372604461774786  0.159170971860761 -0.201422292346291  0.959487666305961  0.256717749918917
-0.525143149207967 -0.495784444485026  0.633345610629802  0.910708085245075 -0.047215194455582 -0.058078784518453  1.311942893127711  1.545595866836977  1.641225955589261  0.904769339953595  1.553507457931952  0.199535627187829 -0.330315471088405  0.288802904837661 -0.044399385488297 -0.664850864092477 -0.229804457707096 -0.561770999388020
 0.744568467192035  0.557253379866007  0.615106567010613  0.324487783548875  0.095410589484924 -0.666303858717544  0.012399446307920 -0.207245962445241 -0.836724481930552 -0.728713173031740  0.720825991998704  0.070645399569790 -0.564865763118135  0.883376024841116  1.113837547771618  1.042572741240835  1.226438878828128  1.661132867731405
-0.951326684186356  0.125638057702102  0.199987246984668  0.765471905242032 -0.360057759128767 -0.351457635691569  0.783432921972860 -0.256686312544855  1.182572385858330  1.564995662081182  1.150258929900537  0.592585530688910 -0.495765565320723  0.842728814985211  0.434378012626123 -0.427732857970144 -0.586910696446112 -0.311307602650571
 1.684504824242180  1.351865652592579  0.433583685630157  1.027519239799374  0.107690234227217 -0.843709429363754  0.431557090195309 -1.071431290720380 -0.241250416359022 -0.245228121913086 -0.193844998712648  0.065793891027996 -0.508959287780056  0.763294396459076  0.475194744889859  0.108329210019537  1.438809404267263  0.527308014346916
-0.926024174007129 -0.127589446456145  0.042620865921890  0.067818912478818 -0.398856049549981  0.611487859693296  0.062453877898743  1.203540698658687  0.961468316973910  0.918128120573392  0.273483294199098  0.448608188112869  0.345992471810561  0.330604748279911  0.115056074847887 -0.370488581821668  0.143642681734469 -1.247200502551055
 0.269972303737162  1.085544606997452  0.816116135161368  0.666202789401385 -0.543567683878837  0.204039218185830 -0.241158659810116  0.124413258586334  0.100721148227927 -0.519331394045885 -0.675026211883624 -0.237960690346544  0.389820487486106  0.245667155528101  0.327373013859705  0.669637673392816  0.672645258954704 -0.171962587442582
-0.461280324393676  0.027948343258404 -0.198429307292894 -0.690539154690205  0.478690764451581  1.088788498680441  0.437172028398186  0.544592859572149  1.523551862630460  1.141982034142730  1.207630785919271  0.253995803763316 -0.390841526366495  0.006009145021162 -0.217556428824394  0.388855208344364 -0.610718840512947 -0.706821689784655
 0.928116584748242  1.839501596337790  0.183876732239722 -0.483425043446558  0.249376994410837  0.822409048178430  0.132192327237371 -0.108427213042363  0.467829449767700 -1.074625617137137  0.039349756392473  0.003572668518022 -0.453883830188405 -0.112445525546269 -0.007408899254404  1.032442434944651 -0.107143860227025  1.420776489207008
