-1.102143462322215 -0.462283854949581 -0.766545046654815 -0.044631511055768 -0.293280928063690 -0.274988005129606  0.045252635713985  0.405897347114797  0.480538052418068  1.120567040982174  0.274394569182332  0.761203936673539 -0.468668950989861  0.631807029194391 -0.686050053591002  0.261287026883393 -0.181679153848700 -0.140745512178055
 0.480558814755911  0.255261926383828  0.713990461508758  0.888971456644543 -0.204477697938339  0.047731241402894  0.067491035151072  0.038331355025508 -1.060820625326638 -1.194267360077627 -1.222666375385715  0.054795876884252 -0.902537359059611  0.159178542071619  0.690085310898035  0.504257807229059  1.053322497506640  0.356189123422734
-0.936859169734712 -0.400078135277810 -0.215635503640277 -0.007003081144156 -0.199871723817060 -0.215897894209308  0.347500742393834  1.123424583992772  1.138938883523470  0.407805162214549  1.398517283678876  0.230799885456644 -0.011328009234428  0.496860456506053 -0.541388378472735 -0.612930778114696 -0.505138909413911 -0.505464594401102
 0.240299877995188  0.713005810064873  0.297398404927071 -0.351207036442387 -0.345545086244286 -0.485155327520558 -0.108599287254711  0.358557906862447 -0.239049366389897 -0.930735187878604  0.477649414383114  0.100932172045977 -0.336321007602906  0.759528681396416 -0.114697978569068 -0.143264309501886  0.800448356657727  0.295512980243656
 0.142902710980477 -0.587547529192234  0.072534933103472  0.315311882675591  0.655679554098276  0.316611068027178  0.836469072720119  0.560937377351483  0.848178514168948  0.600774012841907  0.089302299936576  0.902557312805864 -0.274730093869470  0.098376406982622 -0.401438411954624  0.345362720343140 -0.630856826268734 -0.839088302533525
 1.541692655016487  0.760698298509992  0.022283801842381  0.414356179637325  0.568528771821865 -0.013558393176498  0.391130008472470 -0.681122107720591 -0.140653469085834 -1.024863628735979 -0.436614335336927 -0.205055483971232 -0.208655430821447  0.281412331612908 -0.075279486839776  1.221974856629054  0.281285161256943  1.674858991863551
 0.010197685313320 -0.642520551788419 -0.644272947416057 -0.371255456034030  0.394195274533031 -0.191715854011804  0.746632058492372  1.012186728704444  1.213762339051933  0.176448472393566  0.806559506168663  0.363485964128313 -0.473156038838838 -0.048532486370025 -0.363505793531304 -0.009399524946280 -0.405045133072089 -0.200708605518036
 1.459856048665779  0.049408549044454  0.778619022416164  0.159784045886345  0.369858624868998 -0.481671839672293 -0.089895534008176  0.398982127909463  0.120080646183461 -1.532832231006920 -0.533067724058105 -0.222240561779592 -0.460086848154537 -0.333974926925589 -0.261452332721952  0.681074720793471  0.864249458494006  0.626487245466058
-0.019615672124505  0.239306821855636 -0.008136385801774 -0.471665353520308  0.151929023962073  0.717946093646263  1.315272458356377  0.648463922095307  1.199896632437317  1.978997516884284  0.764813411880407  0.335178896994918  0.332135998825396  0.289493138983309  0.868308652921201  0.509052111127774 -0.887472025679450 -0.514003649926797
 1.287857801752986  1.031568603127204  0.719330263723522 -0.163682063214682  0.067095355822245  0.095883718003492  0.778592563107853  0.145967605740610  0.248931273084506  0.526167793837914 -0.039044461773442 -0.159602172050164 -0.087155014163351 -0.039967139394179  1.142796940171617  1.142925964843790  0.521050335624513  0.113959926640858
 0.582505108744420 -0.134533421149588  0.320691947276860 -0.217803567403326 -0.226847800752970  0.815999421519376 -0.001911743955796  0.953413638261440  0.629863498847002  1.857560035459483  0.266992734066707  0.444456751681626  0.821360633082206 -0.213232541912480 -0.611338587077873 -0.786194292163129 -0.432954261211165 -0.319054358789885
 1.799450837202257  1.430530640053285  0.591207156087738 -0.233451866828787 -0.526305955758345  0.601008994662030 -0.686446298873526 -0.050049272864480 -0.324111027851244 -0.327102471166112 -0.025853032204958 -0.023562392449520  0.529281123090551 -0.077460663270193  0.056255227674443 -0.173270862497909  0.267219139524560  0.645598068239846
-0.873145295871505 -0.099308061148373 -0.104195224184920  0.004898150728645 -0.279712615835067 -0.105372260622245  0.816729228437737 -0.132294001175212  1.198929658146553  0.552075548367449  0.067036136364478 -0.292812219618814  1.126363976215904  0.445965503063720 -0.057646570158632  0.172575082473767 -0.291134383013126 -0.012477251619456
 1.564869612426232  0.618820290974988  0.372982351516633  0.406046469955051  0.055270076432916  0.098401131283131 -0.071327024914913 -0.590053153813086  0.466419552895352 -1.227419588813305 -0.470676334628165 -0.796723437430754  0.706055140629570  0.100549232070474 -0.223664359779978  0.380412790846367  0.370905721065483  0.981291438079220
 0.464470386715882 -0.486203460912734  0.028943915266680  0.200630544421797  0.509156847941276  0.801701968841145  1.345518921840305  0.866773869988553  0.487802906685645  1.669698289677960 -0.069623059155631 -0.175854560714325  0.025731240296192  0.241910501304302  0.189249104490195 -0.550996417129444 -0.106396089893303 -0.748225937022641
 1.866715629139506  1.552902912687399  1.009694064587804  0.127860594225070  0.382264364926419  0.477880945455869  0.379846167599862 -0.341041247206525 -0.762151619169152 -0.971817952489692 -0.665946311533543 -0.120150777358636  0.151837519952707  0.532906066767784  0.023312353802841 -0.277907056523739  0.940439193138031  0.586486834505487
-0.948293551890961 -0.804225692224162 -0.112945351467100  0.360910228179890  0.656891012389233  0.430703604643473  1.254184932491785  1.592700869382410  0.232223603237886  0.946259442251776  0.392969908731734  0.301067488326641  0.669100169570462 -0.101740082655226 -0.013252200606630  0.234064131837249 -0.927588345993713 -0.043104674357051
 0.386827177094694  0.634539160751204 -0.088041309441242  0.599704312297606  0.221724453439068 -0.517120759639578 -0.398852528843750  0.699206957580893 -0.644651061499309 -0.666328794044542  0.186644529113601 -0.211304162144058  1.035921040538210  0.252754851849253  0.012751407881132  0.966279399342041  0.810497420270682  1.564681912670221
 0.413568261399489  0.629751563180491  0.255957513141853 -0.619703615291666  0.098549267474515  1.334588516672349  0.305511110929677  1.319939972167781  0.904035988233095  1.769313480379815  0.410684561241999  0.200071786036573  1.003564760123294  0.993657103655103 -0.205523935087209 -0.778007439674128 -0.670354758542427 -0.880484825805661
 1.553773565545330  1.477209837156571  0.939050860773082  0.001483175080051 -0.393432530384567  0.654299488661982 -0.113815203396503 -0.375410532471205 -0.402595838197526  0.365391761634154 -0.338931389102985  0.265686585178731  0.788520452247320  0.902201656021690  0.135699134039330  0.303696226950791  1.354239555529379 -0.022890489582034
-0.766195557442100 -0.842084185919944  0.187425746450850  0.354648490836985 -0.452108066052326 -0.135090797993772  0.817286917691367  0.811799308154699 -0.048906088310178  0.884123038495447  0.776308562816949  0.880711402690006  0.389960137912968  0.836379091674122  0.549862667258493 -0.751759401042680 -0.254052661681725 -0.594546385738789
 1.062260903444758  0.073300711002228  0.263075052183453  0.298922272522500  0.187218076096876 -0.609396446306638  0.177779190538491  0.100503599469637 -0.661479499825984 -0.678970379175933 -0.836269333805072  0.170737714862882 -0.253127843930353  1.111302657301489  0.777033163068509  0.431259469049431  0.658001280683263  0.121760677574215
 0.326928486843864 -0.637423056278306  0.373604429763528 -0.523997300029811  0.420279535998585  0.667810084458395  0.237384436681122 -0.240408012512992  0.106015062268957  1.069673085092489  0.427959097951799  0.380235065871721  0.109481116260907  0.260543000270591 -0.543448514780619  0.210138288245208 -0.298016438279465 -0.315852869954269
 1.994961966158769  1.026375492152159  0.721416620882263 -0.049542534987937  0.398436082450183  0.365908861771262 -0.172440889798646 -0.890141667641007 -0.839727261130620 -0.414469913154725 -0.617056128606591 -0.244513654024336  0.015658359621364  0.367035388953841 -0.148495449230398  0.649253364755392  1.408944728870728  0.286569533128544
-0.554742871131215 -0.598456862255463 -0.684606302808113  0.075294365588558  0.802710011598102 -0.229543432221874  0.119644416450568 -0.250537150374098  0.445065788157013  0.209013815990429  1.018246562536763  0.397264122462554 -0.506891539646223 -0.763883845728251  0.472715493709960 -0.615162909096965  0.452167161470344  0.282467756397111
 0.483120203230264 -0.256145438930729 -0.280151835089324 -0.118962082098947  0.719654538241332 -0.531873451138843 -0.722890181073244 -0.922410568371407 -0.424730471149097 -0.467066590094325  0.056815783826558  0.138023796004510 -0.563692944664081 -0.538823895138876  0.898156325317199  0.158926027399885  1.301100708930726  1.464191033766036
-0.832828375434041 -0.647687950380507  0.646115075623476 -0.292652764610364 -0.104769140617537  0.775108899376337  1.040153442620431  0.095756768311187 -0.068492102428267  0.773902831961898  1.448133277383937  0.183198056619829  1.104165749793113  0.701790912617971  0.156615513033967 -0.226965479994129 -0.410575469686723  0.772812220063025
 1.601381421630119  0.284151946629244  1.297237480012633  0.025273785151724 -0.032401182184467  0.471623720552516  0.376311567489144 -0.572008666106283 -0.532388480929069 -0.745332406044973  0.486948758166827 -0.179496426509984  0.609959821865672  0.844104898869697  0.618725861081861  0.141964010095553  1.074125488641758  1.585401957813627
-1.170899077699536 -0.322462739592118 -0.401733738957517 -0.535896099830187 -0.479556583063986 -0.030893380197538  0.772635413321658  1.297786071909577  1.409080410123158  1.167815107996503  0.364222543214767  0.395702470542212  1.309128270748366  0.134284021123172  0.344721433764598  0.182844764952369 -0.391664236111181 -1.559127310587467
 0.196819585310643  0.557835738394564  0.609817575142518 -0.243068460870141 -0.279527492321974  0.198341021908475 -0.501675607619652 -0.078913224986181 -0.249665160432883 -0.701390324409018 -0.760221029327833 -0.007280464291022  0.887644005394505 -0.129941271971009  0.281152954420217  0.210583221928571 -0.196286436016488 -0.171602690500116
-1.278787470438321 -0.889668792146720 -0.069885995620316 -0.871632489583433  0.532883392596419 -0.188154331455692  0.496792669488703  0.259142596364225  0.777211519684453  1.046495895084637  0.885828118333593  0.116852178972259  0.602300960994101 -0.556745752999878 -0.502018199764459  0.117308607612764 -0.303762112463581 -0.665544204468885
 0.461603978471308  0.793572257776083  1.083410288776946 -0.187247744933576  0.070312144678581 -0.777071270360056 -0.059023799360659 -0.594454074401888  0.010252457082346 -0.839149334027563 -0.279080743547960 -0.737698558306698 -0.598627318078526 -0.018470897918678  0.056731827092218  0.962219986787708  0.254724819813900 -0.120674600006865
-0.121005874454922 -0.127712526053036 -0.099934079545941  0.387942421643324  0.634364065317401  0.441243927661446  1.311822761273498 -0.126790228113332  0.767643396803441  0.831630448279251  1.105457149521914 -0.311372373992171  0.092548309025024  0.259799114445821 -0.670783963803215  0.746628155972383  0.056928952644837 -1.224192876959420
 1.811728324510808  0.748234495564291  0.917943493769752  0.335634986615431  0.000034651290714  0.214524344875652  0.353369890513890 -0.683292678701832 -0.625352093564139 -0.596947239056962 -0.214014729509852 -0.271131121116118 -0.301623959486146  0.096562129344580  0.120185868042052  1.342988637440301  1.308282527059480 -0.195474628164212
-0.589398249773337  0.198105201081304 -0.204869889315920  0.570396390907850  0.897178208133002  0.122936346431595 -0.000899773485690  0.394151618311030  1.547067077675138  0.673018058350879 -0.176381214923528  0.732684294038135 -0.263475508749698 -0.589908469191673 -0.298231787712410 -0.267227350195281 -0.126652805239180 -0.421842037966360
 1.379112042753185  0.401584212931763  0.328727311460086  0.077223015447943  0.341731994058622 -0.257654199271201 -1.010356180500236 -0.615405174035528 -0.576553321786907 -0.081946157073994 -0.472694443072155  0.175193457220741  0.079964248869888 -0.087497439285015  0.314849844925396  1.375461401550194  1.633597037305197  0.767285890547755
-0.179575650260692 -0.502375817768801 -0.617193247483659  0.610749230366386 -0.332118514310084  0.133346777248263  0.800611149636250  0.148408916007186  1.045748471920820  1.634115766632206 -0.096999325416831  0.702421851314631 -0.124704235836506  0.836920909678953 -0.772801647887998 -0.545559791179398 -0.878718189494649 -0.848690304444225
 0.426852341728027 -0.062544247210390  0.089560280519527  0.447859805397998 -0.287329336592751 -0.809766100140983 -0.586112146502529 -1.099225917810525 -0.139874322100458  0.107843725828730 -0.533773172656608  0.480673317499508  0.602562383776757  1.128930602702144  0.265626228560045  0.406614701972822  0.307001046788344  0.457661284223772
-0.578074786554878  0.388396316161364 -0.875101818884774  0.348973819550046 -0.439738055696662  0.711120562796751  0.786551584751178  0.505606065713554  0.708548298808220  2.050365948480391  1.430714238780314  0.958118857967808  0.238816975450046 -0.228198148550573  0.280405915499605  0.528911970582639 -0.596732373439097 -0.702961069584338
 1.123516805825313  1.487761345129581 -0.032157169088881  1.070775496103957  0.337282951100276 -0.149492562505557  0.501143705362572  0.365293763528614 -0.584690568147393 -0.485867746866705  0.066698005061515  0.075166740745637 -0.561061478704182 -0.294682911958791 -0.293516562290368  0.655736034294551  1.103180031905943  1.426222997428315
 0.388714472866703 -0.063310896799293  0.546118075665183  0.012877892976616  0.373177588390729 -0.092964138169069  0.526680322318354  0.715696455240266  1.535233942421384  1.909677642010835  0.052192697257528  1.019356424184099 -0.245543557431791 -0.204844790107729 -0.465442773492718  0.028730864045355 -0.574895875857459 -0.327391611107975
 1.578758690227427  0.962513529459757  1.021131989287482  0.328807973843062 -0.394735520655663 -0.291213212685682 -0.910374160474113 -0.086432254563209 -0.916762008323826 -0.032541972441188 -0.560570938686734  0.212759542955597  0.256209108563824  0.334653173527249  0.508993921353900  0.486829580371847  0.986645153567176  1.544879163845361
-0.447931708490818 -0.667750413677071 -1.032126052998159 -0.166761731586868 -0.894826273878040 -0.076884689088308  0.012370566828155  1.403506375124033 -0.139838596974074  0.674568206605222  1.142045856009694  0.559542599793499  0.238585743125264 -0.239264895208229 -0.113325757940677 -0.756569038455847  0.517561189576629 -0.057518037288238
 1.105714984261797  0.875618063755334 -0.067308511495272  0.526080764088033 -0.503374603571051  0.277577480214057  0.119210768678293 -0.101330066866652 -1.140705752869092 -0.888969330392332 -0.067553313771584 -0.263374897564668 -0.702834898975107 -0.516546289803318 -0.402641059812502  1.072506024436626  0.466187289084052  0.389665616947108
 0.368378992101816 -0.996201356691684 -0.764437261159188 -0.617652940609507 -0.161676849980271  0.304955308568116  0.761275065764732  1.433667514731766  0.750422328584174  0.948081590523753  1.075956162992322  0.815358872050256  1.115410540703697 -0.516751873499815 -0.362790035106812  0.091390528729378 -0.838983820973689 -0.747303304745716
 1.956034500354080  0.064916226938990 -0.159088878148080 -0.479439365807012  0.220782196308071 -0.628961391030134 -0.560335693854444 -0.237969839158486 -0.277922868753000 -0.543085941440794  0.299419711527645  0.328524928309631  0.608333821513214 -0.357482160771076  0.956219778185180  0.345133004910350  0.174933425813521  0.368762449975206
-0.417794701853317 -0.631526229615695  0.044675622591051  0.587603876405966  0.102012963994989  0.218453602372644 -0.293113854623435  0.666534787874189  1.079949684504945  1.124958264587432  1.253631921154960  0.609140653368992  0.379124143003178  0.146650745960317 -0.513432732659866 -0.150295632902536 -0.729443568139273  0.164903707723474
 1.121840611557359  1.008534003332296  1.026325127145124  1.127046853876832  0.370898062389474 -0.340935531007423 -0.312788761127114  0.251793743822944 -0.728656905043511 -0.581615669160173  0.051631454462001 -0.298399040259619 -0.509352150881051 -0.302033364853096 -0.511208179098730  0.061833260606458  0.981384956269672  0.722147531168144
 0.780618417668572  0.181484725570849 -0.227465248827660 -0.358523657297503 -0.281278752951949 -0.392672421641083 -0.138358413617779 -0.001905626538969 -0.173105715894826  1.384340772380858 -0.153892091122201  0.230353116144354  0.123097237728405  0.795472356521752 -0.550144718010795 -0.122425022409373 -0.451197565144069 -0.414801303698447
 2.048413515157188  0.718413300944857 -0.199178158710353  0.252841823666788 -0.546772609680130 -0.333961476620003 -0.544019062223229 -0.687459526807571 -0.676936891066362 -0.051275038961817 -1.115786386644013 -0.284177355761061  0.167025613449104  0.794263367374962 -0.269106031507261  0.507115132969735  0.212127319704840  1.679711175632710
-0.553684722429263 -0.539034197638049  0.623820985499450 -0.452173392089454  0.425784177085706  0.178612606737231  0.014235653991370 -0.236159547939495  0.306153477471748  1.016239981354636  0.148303311817024  0.749105084894178  0.828328273992578 -0.519307932524602 -0.153398108074229 -0.829444771801743  0.537800944978716 -0.451078737606214
 1.801223458453197  0.344334180776143  0.939060385351438  0.495870045678018  0.369831783639911 -0.418327856690425 -0.804616153107616 -0.466483479233874 -1.201335587241664 -0.614109443430072 -0.429570843919288 -0.478161734353532  0.529652502059020  0.029577820409569 -0.119140156638733  0.447003342257817  1.488230396630839  0.392895993442895
-0.373701453141243 -0.258179166240027 -0.754922158522940 -0.560029639912027 -0.171076785355710  0.765288109568206  1.096038406768294 -0.061874804766424  0.122171808407062  1.198587142500492  1.340548606949392  0.924294497932027  0.826390516794222  0.631828585000531 -0.489168498341542  0.103310468556664 -0.830977473364694 -0.713630622720594
 1.775790997459825  0.906888739458679  0.721029857411055 -0.397960476464973 -0.164123360134645 -0.469527101244906 -0.348179957071371 -0.332521830803615 -0.570989976394714 -0.716289664581532 -0.480803053921563  0.598624789995618  0.385353962623292  0.672845505714269 -0.395188164847936  0.364115580521455  1.375120534908498  0.892094994392569
-0.141953545009233  0.193244898038939  0.057597593904871  0.732778947923588  0.488405946158229 -0.154410543924983  1.104935045573566  0.918490335195521  1.339776652588020  1.664521313497097  0.430682519118184  0.454932920045527  0.472065811570710 -0.128398637656901 -0.276216082078597 -0.070282735915677 -0.980414663791559 -0.467179492193511
 1.038876994200636  1.393673693658310  0.603822375551138  0.688647722871340  0.874617847688609 -0.679820280839424 -0.437554480505967  0.229756204943106  0.403516881995483  0.116241745484173 -0.529923413273847 -0.247798252937313 -0.008257119996026  0.388933935137281  0.136858934220351  0.208133946443802  0.705142249284792  0.406131865437461
-1.161642848127018 -0.110609931347979 -0.090498638801680 -0.209932680330295 -0.126057146138961  0.158526785247440  0.424448564700122 -0.093902817823513  1.185989824313394  1.787457007134051  1.430295185216704 -0.266640075953159  0.742521745230305  0.289497538556354 -0.708715521941736 -0.722245871224658 -0.167245927034553 -0.636664115617246
 0.173578350961765  1.087155693042559  0.630189334522546  0.358253062286766 -0.114027074330199 -0.731862095650050 -0.753971975112069 -0.375933156005615 -0.810118256230787 -0.344021891693660  0.560503472516917 -0.971831815100658  0.558826305585347 -0.198446901339029 -0.489765665084790  1.051152814333120  1.452349426043293  0.777455165921391
-0.529693901902046  0.444590862074667  0.730378484554098  0.121185054144031  0.305259354053089 -0.407527061236895 -0.117741321685541 -0.422667767974222  0.639132367519347  0.448851462052935  0.374659073814678  0.007316857552224 -0.461904851132784 -0.481254234209935  0.847506432947921 -0.368134844238743 -0.037925352306894  0.109005580492418
 0.353129636783550  1.071465918135137  0.933475393185738 -0.035454850292754  0.171385991898763 -0.753203567105657 -0.704293979836766 -1.238036686471204 -0.402020222273711 -0.903197714559553 -0.271293418492800 -0.514063389476430 -0.455405349932445 -0.224445685442151  1.292191525491464  0.577247368995773  0.905486353235684  0.927980018360352
-0.741379035921704 -0.656003463183422  0.595252137143703 -0.128747001415472 -0.072541950322264  1.337167154447934  1.352845369386653  0.783626959367715  0.702087376877164  1.280106897954310  1.583565253125716  0.147007136454432  0.757741243731409 -0.021947986085331  0.218102835201115 -0.406660989058821  0.130459559044794  0.206632193275303
 1.960270117818255  1.065493688297268  1.272703743936517 -0.442552679873070  0.188138598355368  0.964197318905952  0.819469040855850 -0.299968787097512 -0.157471863574625 -0.598736963005538  0.681276306046716 -0.177689505066769  0.224678520167334  0.324907655381560  0.594532868360904  0.605703081889084  0.918317805694537  1.247673043201827
-1.134428419590047  0.239998752153190 -0.249920633232437  0.494547014704203  0.237187472217739 -0.031880956689699  0.326581376688644  0.681249277634456 -0.166051923525527  0.569281110976395  0.182509692600447  0.444140990019269  0.777557371289723 -0.082559419673977  0.513257561339548 -0.063617677642331 -0.120596868571681 -0.085299406166532
 0.286966252454234  1.377108662475864  0.666297961038008  0.582324024223947 -0.372959675294798 -0.579766086356723  0.191378891463180  0.196996312881579 -0.957682626703698 -1.151708816496350 -0.452045175244793 -0.431991630271604  0.001572730395590 -0.263887422006520  0.853710554905493  0.561410505095697  0.636952214241581  1.050270255444795
-0.751512314678526 -0.516159322786503  0.076834027816933 -0.352364452278138 -0.468555000709932 -0.408467626246390  0.203526868909708  0.282729682683162  0.216097107533086  1.073161769527617 -0.063738313659571  0.711265758556589  0.222380526928325 -0.595489275473730 -0.477832567171186 -0.218619670377040 -0.442984231740797 -0.580216959799953
 1.180771482378047  0.474387952921293  0.577112017158004  0.385439251953875 -0.418600036651626 -0.598189687945656 -0.369586061320951 -0.016984282415940 -0.330348889246495 -0.308946783300895 -0.825079469799865 -0.327193684328430  0.283260642603035 -0.766481145423418 -0.198058099347221 -0.080027179110869  0.130077711884115  0.051669763982234
-1.129060186334470 -0.885777918447563 -0.696845553780208 -0.061623611814436  0.063824143134906 -0.150102840316831 -0.064168263673973  0.470352859811523  0.241475663122877  0.741105104245599  1.659078353341034  1.103923850239104  0.366210155967530  0.633422378038069 -0.455751089784759 -0.145552917978317 -0.920062587279344 -0.364522609815206
 0.426565592129222  0.138683714858593  0.463413158911094  0.620832685687614 -0.165506614077621 -0.340854136747804 -0.240736367254456 -0.366178849436113 -0.626850502303576 -0.976109034330618  0.355487185734804  0.321429104346968  0.258792124868095  0.225413013720377 -0.293244349893203  0.819222523207245  0.273946905993203  1.230617681011484
-0.397971744121583 -0.107431392047399 -0.223024597757286  0.191542084738974 -0.046520080472320  0.044023088325169  0.699610453051085  1.160365883057730  0.172285606929248  1.633079178478550  0.600630474296627  0.494656891595517 -0.076326763758280 -0.709473120417472 -0.144466176701951  0.754723796937363 -1.045487444736050 -0.668453723625288
 0.943521474833580  1.159844418788879  0.110082516835904  0.188904267508465 -0.342338364191123  0.021472246362726  0.184075914382375  0.535492832750977 -0.677868499548488  0.175659508716711 -0.273868381505860  0.247807736523020 -0.310585600341082 -0.695414912238217  0.245702316191247  1.297964556193352 -0.208907111830791  0.666839396625960
-0.618347749259119 -0.512090537164874 -0.239232592666381  0.880533236799067  0.657586917897706  1.326183802113236  1.141932654978355  0.177207978511372  1.007312078610826  1.253966105394916  0.505001401285285  1.408838824596128 -0.466960038594991  0.817745874869036 -0.706714153427649 -0.547589224100040 -1.070651030820091 -0.648167560412055
 2.032047362882477  0.923243829292692  0.709239611737614  1.117123705430257  0.062878970459260  1.035604443925695 -0.340032606869118 -0.469135528369078 -0.854295891046147 -0.480036429127715 -0.564317366962377  0.889837403424102 -0.597357150610395  0.779426846370948  0.752411604746346  0.035749384152360 -0.145783076103925  1.328223609231218
-0.262406833259819 -0.467349525192726 -0.575123798775857 -0.478905108483974  0.174675428139205  0.173732022495257  0.433360334495223  0.642635290849425  1.634686511481908  1.262995978712274  0.955851833692631  0.114057543463853 -0.429201825990685  0.515765505286247  0.869933577722304 -0.135122445434250 -0.296947391932116 -1.045024444086202
 1.118201459801604  0.486591367560099  0.464026065122963  0.105611874037092 -0.080943856208300  0.203975714878938 -0.430298899827644 -0.172712757164005 -0.008252397557001 -0.910068996246205 -0.880399572960964 -0.616916459643910 -0.432250406163668  0.299879973302106  1.230153697554958  1.151593265275831  0.613785951535543 -0.173550118941361
-0.586872506240626 -0.869954521242816  0.019097717211016 -0.454848221216326 -0.691213661499583 -0.553895521489021  0.664954645855996  1.141195411499614  0.084975730517865  1.801762125606100  1.231141641542257  0.710626607276796 -0.186516166528918  0.018233045928565  0.404074191177644  0.133746098941850 -0.114799015365335  0.404423416602631
 1.384407950314451  0.602970233119256  0.511395790756240 -0.163128000431807 -0.480942876683971 -0.466983579092243  0.201793297991625  0.264312114498360 -0.643516594313666 -0.218887663220852  0.425597175375957  0.238088318051973 -0.514918437348862 -0.142592450277427  0.806610027216885  0.092370919205348  0.141770916828923  1.347400924657302
-1.097264709503516  0.223939917453857  0.262270928698036 -0.844277612551717  0.963683642176421 -0.279605603401589 -0.300379552498905 -0.080654327835122  0.932981088668715  1.349141589049084  1.179981938637027  0.721478256783297  0.080097738844159  0.946374747231220  0.179548060149870 -0.027572552768665  0.333447260429769  0.344772959039603
 0.172590694028542  1.200879633968086  0.796605355007429 -0.471472787940757  1.099413005627454 -0.153379705285385 -0.557750913048295 -0.724136405404020 -0.918431972799246  0.111768330283243  0.260692124815243 -0.062123910491135 -0.331945044099103  0.720944711086559  0.292655046230698  0.046352699444212  0.725116513892571  0.991407529543661
-0.710977037510861 -0.540015605983770  0.052899273040506  0.006501397720951 -0.624653822881367 -0.132369332589992  1.371422798351307 -0.327463404085928 -0.008350119300334  0.477361630991875  1.232461393380067 -0.187184652009349  0.471034187503615  0.633025877884747  0.229193455904664 -0.492900126300464 -0.114995530443793 -0.551740082139661
 0.648589074143888  0.046073512820292  1.102546423749953  0.134165715648632 -0.848014793951577 -0.321783732791040  0.299106130409559 -0.982677003317995 -1.274749472785418 -0.775257473300071  0.035091932201714 -0.175228693450082  0.025413551653836  0.814393307124986  0.770892340241462 -0.128275215315755  1.143074469991603  0.125896533079977
-0.392726411450113 -0.467278861784323  0.468511484397981  0.904997255107738  0.398938798450656  0.882963647707826  0.031065864535781  0.640513286570539 -0.166947495694780  0.966551739318510  0.559253053089084  0.421083229708578  0.238281483846801  0.674754536729406 -0.532576554602455 -0.876758689692484  0.325374961696739  0.020135152889250
 0.979125257930980 -0.068546492282008  0.471679105014031  0.703636109680147 -0.181741340213426  0.085900736287867 -0.551588472296962 -0.248823153893538 -1.073779054017623  0.192763327003741 -0.345760820211858  0.061667139320731  0.373654035781080  0.995835729557032  0.049300332550104 -0.041546010358469  1.226447404826295  1.607346634758374
-0.622453250727582 -0.713746818795365  0.505570490797713 -0.002539862079776  0.204481071519200 -0.206458441068993  0.716120953291334  0.923006277177932  0.924361724757656  0.900061391889836  1.101469425034541  0.282219332354314 -0.080542037209941  0.093114724163449  0.381304516694672 -0.042528487180392 -0.628874789927212 -0.278098572067596
 1.122220276506483  0.146183319040303  1.398855195903306  0.991828814052239  0.017362795530618  0.031151546063781  0.274309511030310 -0.921127097294611 -0.711440882516108 -0.694028933681075 -0.388563489198074 -0.715007643546057 -0.635940234732315  0.208051116361037  1.067888342209619 -0.095632277480822  1.129281054352361  0.187816675071281
-0.211990845108237 -0.165297266483419  0.208283903465847 -0.395355686476042  1.024268670202048  0.334889793559476  0.920595013415184  1.113712989414671  0.439821640690189  1.348163505591905  0.616221021690992 -0.199943222785070 -0.000936005885545 -0.173496230410064  0.172389876911983  0.042903386721056 -0.169749858519905 -0.407037090912524
 1.081005260654070  0.947930143913077  0.806850537731332  0.308135894746688  1.036805212648752 -0.668791436569375  0.528369529773907  0.085312484718951 -0.701921610822721 -0.176792875294929 -0.601555668132425 -0.583240431088780 -0.313150262124908 -0.132539773527166  0.041394450736086  1.068543682315698  1.418357537894803  1.449904754958733
-0.014259108962379  0.285401577326973 -0.106119296479090 -0.438315881673421  0.598403522495015  0.062747051797209  0.492837940393692  1.515653525654040  1.182488790180880  2.027053570252295  1.168896156529905  0.522081887676408 -0.412035590983787  0.376609805005432  0.486981906924176 -0.203897737053041 -0.693362503583659 -0.390293057904456
 1.837636886499242  0.997660584814981  0.362120314144895  0.523056271731975  0.495782826743379 -0.652134108052552 -0.244603728329812  0.684178121882509 -0.529056635604352 -0.234307996706750 -0.677923117425306 -0.127568897323773 -0.647143007467626  0.995180428605068  0.877706066921598  0.362188719492882  0.199535930214451  0.554861878125659
-0.917379677593400 -0.313563164686527  0.636870297643529 -0.307667038820276  0.640702387311182  0.701109286014472  0.158407029941257  0.546337522495697  0.346285904967044  1.421760767134363 -0.206848823391194  0.741192938537978 -0.390652716201257  0.287433142247005 -0.446310700191383 -0.354327934152787 -0.546110189842631 -0.038830351167689
 0.399671345553692  1.413820432902539  1.375241555314298  0.056310980049858  0.245598061334834  0.511294607397484 -0.513602135955703 -0.111906137217414 -0.809713194816357 -0.503416958788130 -1.016725282330775  0.377145469240581 -0.257760681955696 -0.288487352125198  0.163611374997811  0.165577912954244  0.138650290259442  0.667677450624682
-1.051479807397559  0.036884374741823 -0.415935139997789  0.465874707528848 -0.075709695296511 -0.374643928065071  0.546101662712079  1.423203728789543  0.550230225268045  0.718205407618737  0.376734851979957  0.387079547053447  0.980679511641135  0.279272019497008  0.735992099840420 -0.270913150872021 -0.050449342934039 -0.853541491408185
 1.209770386351331  0.907173150333018  0.486063976180386  1.018395296180462  0.272552958201639 -0.258652912139780 -0.720578463355543  0.346042963296835 -0.645508588252198 -0.885207664325700 -0.579889386907734 -0.356566577258460  0.485784614224100  0.013787904129451  1.041651770602124  0.672160116502553  1.142138547878560  1.178198603867972
-0.786700964608879 -0.424604276422833  0.313199641694236  0.133733672848285  0.382558620624480  0.287726455984934  0.508622505598223  0.241513596779096  0.110507406272038  1.371535615193287 -0.094554051339273  0.325445558699395 -0.219368583859350 -0.128312902092675 -0.678039302167227  0.366298714661841 -0.942895560293736 -0.622225049546528
 0.561665857829204 -0.081301825515232  1.146213413836051 -0.162675985846797  0.280603089011176 -0.487664576615947  0.115549812880632 -0.498512910435354 -1.094267139735895 -0.502712589775702 -0.937049381420789  0.194963512507525 -0.259957402340010 -0.443283214964506  0.159333434077367  1.206572977745756 -0.112478019720102  1.335472647902517
-0.473564980266352 -0.851650408603570 -0.264728429599206  0.863901324129503 -0.444735302310014  0.264811398940597  0.637458960534790  0.245853385412937  1.277856347127392  0.302772567878112 -0.087786231755042  0.023532879595640  0.342773462541785  0.246053556123453 -0.509238156183857  0.546608604149223  0.389066353085575 -0.443778502544461
 0.974135361221312  0.026466600489661  0.456031953716969  1.162284109596865 -0.115502470561319 -0.245675247260829 -0.366341541009152 -0.519349411077265  0.110984466322449 -0.954521326494517 -0.809216369505996 -0.487567970176268 -0.488615595823447  0.070632825418259  0.177192869357008  1.195656450242764  1.556380588156473  0.572294991695213
-0.799673180058623  0.455577093807759  0.110864097485430  0.693095831802933 -0.417793013870911  0.586272167609481  0.726240436797725 -0.197538211741040  1.198319723254867  0.779655823774741  0.968899938795781  0.961730779490977  0.796261988968879 -0.299499406800044  0.166300948877001 -0.513911381233135 -0.314956260781147 -1.179302614780354
 0.794261673895751  1.297477516969345  0.378260540074255  0.877750910171913 -0.565186344545773  0.079664254696552 -0.398436610281509 -0.556052406817874 -0.465445932410602 -0.362448234978102  0.315969736228317  0.225967260420606  0.840105144928298 -0.188131481980562  0.357756695771120  0.632017296349761  1.321830368103870 -0.143382215526118
-0.196289701372260 -0.131872327381000  0.427229622707042  0.391500095748445 -0.024639501565733  0.427490829021525 -0.233432622927253  0.085921180138390  0.068116591189841  0.815338442352470  1.001740980831903  0.414923366426918  0.956430435117840 -0.036966911197768  0.011199213449961 -0.435305390410601 -0.743200057925989 -1.004122443074672
 1.267104566986293  0.574601243986295  0.985560847319358  0.551335601929026  0.447047044594491  0.443705213148652 -0.206008059642824 -0.695078285388059 -0.269241511305063 -0.887268955382266 -0.644565985125875 -0.232747623081005  0.450430071590335  0.279637210853124  0.223605045520267 -0.391062404941712 -0.427246207096662 -0.165050132858416
 0.225319415942507 -0.129976367740714 -0.970656518195146  0.580504845985458  0.310495298199882  1.013998474331140  1.205480096034001  1.039495835781567  1.639180242991715  1.591362757083223  1.267387871679366 -0.134908786384322  0.350856052705682 -0.521972822751144  0.284437796449792 -0.834014968512223 -0.652946567626056 -0.484023786192827
 1.911131439217953  0.263082294107528 -0.228263722508589  0.481038123602017  0.389013517579424 -0.758275926373766  0.557364286257902 -1.053948059649426 -1.009610285487707 -0.629094314217924 -0.043550586046544 -0.401270046513404  0.034734715512388 -0.417639452467213  0.582412342660185  1.229761594090680  0.913676075740403  1.626744652093232
-0.831296860250083 -0.253146030158418 -0.098100714064797 -0.337022077444483 -0.504040981204355  0.155576983057810  0.868855270222611  0.268252348610492  1.623952635859855  0.814768947330140 -0.132513574092632  0.572454622758164 -0.418934918223427  0.796513886090901 -0.014964390269242  0.401284001401268 -0.810598768180544 -0.198337163868524
 1.134912878453513  1.266392920546863  0.953053439559735  0.359758496503860  0.188261214947834 -0.212667399071836  0.039587304119742 -0.158769795554841 -0.520687754840388 -0.985281677183258 -1.201019625903561 -0.851443697892344 -0.136494130814597  0.113010928255332 -0.304404447446348  0.793474865485662  0.589736562048482  0.258244342484374
 0.020788798595621 -0.124433831194796 -0.294311924594000 -0.565847130561257  0.563108923209081 -0.189298529195354  0.403405160131472  0.908912292122602  0.392031648546324  1.655948649585190  0.237140866489222  0.116626861554387 -0.535182666011056  0.482283172070393 -0.150256427007223 -0.183822779453029 -0.210467526832008  0.087573781770927
 1.403899511222175  1.005934792111844  0.296532020070018  0.232010347362925  0.544608647519525 -0.219205513083017 -0.341175724408302  0.130890471319442 -1.150888432172133  0.270205158608626 -0.603311978175256 -0.902470545313681 -0.713345621637429 -0.206991466114280  0.480190920836252  0.000122387970409  1.299086947429649  0.994618910369273
-1.142765507135667 -0.272193233557274  0.122084096990924  0.554471150565922 -0.615628935539674  0.620489565277005 -0.031090342954847  0.595889440046535  0.250287639756260  1.666089764760942  0.646184004681241  1.088717485671966 -0.172079361932482 -0.133315000286670 -0.574273529595467  0.803359026944166 -0.141031646007986 -0.199002151103207
 0.391861649996273  1.048758839518578  0.850604921001773  0.760393006201737 -0.700237876951635  0.641387102110884 -0.128589096358477  0.200144502606709 -0.956160987606599 -0.058703776030050 -0.654105237814461  0.584448384340678 -0.292466456051414 -0.358313460017373 -0.290729152434432  1.106478067454822  1.408986357197402  0.217740750694987
-0.757623018747085 -0.113895521397597  0.482909039170501  0.186689458022737 -0.438504133509911 -0.058730022484595  1.237321653875523  1.337829088311107  0.459036413036120  0.923463632499717  1.384520537913183  0.512286486885617  0.783781666693301 -0.173932062632693 -0.514739247855651 -0.700438568481676 -0.672959078614663 -0.728174627168031
 0.416876776204640  0.946575332445316  0.769359794946822 -0.020689608928136 -0.406398001616085 -0.618842452278300 -0.253888794132202 -0.305373468121426 -1.088536759195278 -0.215802563100840  0.632575260043957  0.110545851760533  0.597432804175995  0.619223651119607  0.955457780271631  0.041889027071029  0.075305957352123  1.547507900130184
-0.121271950599749 -0.727561722495588 -0.664159434983981  0.581612172076310  0.231222808887611  0.667976238012746  0.467641202994609  0.855141877935690 -0.209426540934766  1.973566878529108 -0.059566313720599  0.741399221206455  0.400103764474127  0.315844991911850  0.140562606433264  0.120376160497608  0.098584299204085 -0.276274121770323
 1.580479108830716  0.844353713119800 -0.428541965598233  0.439098027170505 -0.178091886503065  0.047910518471033 -0.095827010851355 -0.776669561248229 -1.249270564221113 -0.774953008346819 -0.254887583585427  0.525450877349953  0.166623909854577  0.784857694985508  0.630943858210729  0.805075196643445  1.045844892238965  1.643581528879075
-0.781640610185204  0.049572465142283  0.055850875484394  0.368324212594142  0.456033474990001 -0.267502787458510  0.364520505956777  0.500527342768241  0.295241504534530  1.978631627140802  0.147759035715337 -0.106430982224561  0.147132078007189 -0.454559037160727  0.026434582415241 -0.213097732927150 -0.858182812568384 -0.697036764037366
 0.400839199700291  0.782559485609869  0.506203886701280  0.608880433827573  0.344575882922742 -0.062969542684950  0.072805295012960 -0.871220474633782 -0.434638774955705 -0.283247259340047 -0.928524926099136 -0.560808755367498 -0.237030979023617 -0.680215127379807  0.297603168983276 -0.107648122098523  0.174663787366210  0.864299561786145
 0.357928688613310 -0.549183724659012 -0.593520835294163 -0.235875001884773  0.009298290023131 -0.252663993533893 -0.056700927755469 -0.120541926606491 -0.041619420900670  1.123108478882037 -0.054414521347929 -0.127541809005331  0.551956211316923 -0.134068651658395 -0.586155649888495 -0.281355014297078 -0.898518926236193  0.179673824691113
 1.517828490036404  0.111635236060899 -0.238240779576831  0.014051024868208 -0.398302368135589 -0.139078257937788 -0.709530428387194 -0.749783758055441 -0.486322343723761 -1.002934618228850 -0.800926725044455 -0.652261144916422  0.298888179750455  0.241394040331257 -0.308573345998215 -0.173674539210734 -0.205307594952210  1.565822614927950
-0.873350969066259 -0.350566409456051 -0.014806939810944 -0.566996206735894  0.054534077476590  0.411186003689452 -0.144843607727195  0.710471038393296  0.193267410375849  0.159005129631000  0.628251317439327  0.376804907146825 -0.406259855432495  0.122567372237554  0.479067263816240 -0.310517500310598  0.406680321808719  0.005469783108075
 1.455000362567975  1.204072745800717  0.229262927432491 -0.035843209750364  0.273468728055773 -0.695583475230529 -0.325159016016667 -0.390861588344462 -0.561908639717102 -1.287405321905578 -0.477254651270292 -0.609483725810837 -0.643200805203081  0.495828454053978  0.876422446278508  0.783720733900938  0.850168140265805  0.559570632708305
-1.376711944051954  0.343593806531122  0.068032750477772  0.349965535660317 -0.016813062949249 -0.554996624506867  0.928392322626496  0.601520620606061  0.106334940809906  0.823301454265058  0.329316301840671  0.471251606328658  1.131712140538826  0.194800789003511  0.195128544124560  0.038391717235379 -0.269455123247925 -0.628351666008037
 0.318845291907383  1.541565310719861  1.196679498251942  1.014352710600606 -0.279167770069342 -0.743207957986952  0.462746939410984 -0.125356417219544 -0.555074504429374 -0.760726869884421 -1.038478893452139 -0.301538608828868  0.350027280654693 -0.369940524954650  0.626299789663941 -0.019453661010259  1.253143986046753  0.127625358845122
