-1.133965231273763 -0.434718880888113 -0.683703756216888  0.078020714700580 -0.127212616976133 -0.065782525136949  0.311963319477066  0.659953495009004  0.743057393146849  1.524621129708072  0.557115890085517  0.987110650145479 -0.288171153353860  0.761865820667157 -0.583564949824425  0.304161511391203 -0.169352220831018 -0.161880972048491
 0.890713960765775  0.554960397914501  0.949430746044744  0.972681343682072 -0.071826230104420  0.131305533048147 -0.005697866866154 -0.078550388039710 -1.081233359299266 -1.225205064633746 -1.192404655712468  0.055948596524661 -0.789579902820651  0.331789702087946  0.660512718573472  0.746793260337130  1.313572026603167  0.631684143760410
-0.385926603589734  0.085076129345938  0.383496885027888  0.679655705012464 -0.292120509839638 -0.297241756861614  0.689653677841390  1.270712679305612  0.354654423914507  1.187352590538866  1.169312314618342  1.275200917173513  0.093966238134534  0.816032416788835  0.546836457139466  0.283630412798279 -0.678726211193678 -0.577702974444469
 2.015409558318491  1.158398999313209  1.196102381179020  0.967441290266896  0.088927932476742 -0.605773425583198 -0.098309494872144  0.397550837767035 -0.607941534403262 -0.871131870299477 -0.046606505004790  0.621272597349005 -0.517713004110630  0.971086236307735  1.144172758410230  0.709902960773717  0.205555777932912  0.436644540039826
-0.175351718927649 -0.402666589177953 -0.010578811871551 -0.651294100309361  1.078066108032821  0.106812717252445 -0.169057164606222  1.623051462602466  0.202340372936399  1.649035700596803  0.561551242575390  1.378396396708549  0.947759029301906 -0.179225263137992 -0.506380290846268 -0.227800136637980 -0.499455739474126 -0.633785036841763
 1.644200208085014  0.658435894186407  0.660430848887024 -0.327567613832251  0.834591329126090 -0.462152847137990 -0.970756020204683 -0.158526820125353 -0.804365726227117  0.101545797783970 -0.297371428691244  0.699870185630198  0.913026461529618 -0.280456860461812  0.236527817277471  0.754773613329396  0.330519730657031  1.965390779252000
-0.334478768762062 -0.079331013420264  0.766418387666649 -0.068408107730980  0.660880055389488  1.057628088213718  0.559526535289330  0.539811598256075  0.826912583897069  1.598088712523137  1.158598256450235  0.169608214069356  0.016036055744772 -0.222530952082860  0.066890843909527  0.023853963711640 -0.184344808197416 -0.629663879540032
 1.203619699015296  0.883352288093173  1.412564556085551  0.363925797177740  0.523310943764217  0.289761305293321 -0.253239348731651 -0.759422710296406 -0.263701545805666 -0.608131402207533 -0.012234698440183 -0.319223243100377 -0.465498107757437  0.399032733338885  0.409050994578481  0.948034240029294  0.796644932028763  1.832265767632336
-0.102170354982687 -1.139046332594120  0.638065764039793 -0.155323315434443 -0.836875712341504 -0.004933039980108  0.125200378208234  0.586707626320749  1.677802539440163  0.767956576689222  1.731351783312282  1.139679163840323  0.092614034189339 -0.463920900095948  0.745075530536654  0.938461002245310  0.073004347581527 -0.273969182195633
 2.291624623644331  0.273450941826569  1.439222781293795  0.708310596810129 -0.709546525244643 -0.238189370610397 -0.079941122419178 -0.085138410911758  0.396159906217816 -1.200746201293858  0.152405437216428 -0.012398688413101 -0.129143515026359 -0.347403785214771  0.729182282831941  1.419868868123765  0.483620062740416  0.508482769488354
-0.345974878079274 -0.332193145865630  0.396993305273611 -0.617699258228497  0.170878758879356 -0.246840621603241  0.202282045878991  0.382171813841411  1.174968287021000  1.898095168915210  0.527275335162693  0.982672703369698  1.138453320621367  0.950455762562557 -0.365994230625013  0.791289090219687  0.108134076772212  0.183778606965246
 1.462817720392667  1.444772253246593  1.394547445944771 -0.052486258567716 -0.021006285913253 -0.208630723350846 -0.080287368160512 -0.388786840700137 -0.231334294746338 -0.562657684573783 -0.724366214203295 -0.213479857630191  0.702312899770160  0.608928246416853  0.425486663089782  1.386986906578082  0.644858292195914  0.957664415180068
-1.118242034818043 -0.150661552172491  0.047403824667408 -0.049934011014192  0.685323803957381  0.331916547551739  1.796444346815142  0.586337898464310  0.031438125379107  1.286434477407111  0.171012480532973  1.732352473823150 -0.533790587959247 -0.496114106918271 -0.279105713350179 -0.188756768372943 -1.269197205234254 -0.140808202306416
 1.058122407784633  0.853716052890754  0.087553538251768  0.322505116363576  0.233563495283328 -0.552847494608692  0.728015556612752 -0.300401371543395 -1.264823138625185 -0.412111294174628 -0.318247012776882  0.941818670762465 -0.396863792958443  0.012405021793724  0.223970779572765  0.697046263787933  0.007626491897189  1.806449483692086
 0.072056142300151  0.218688801850577  0.281904045313264  0.092775990364246  1.044684477770067  0.906135510908523 -0.058013394176171  1.136763025331175  0.744440069273418  1.517805195865428  1.364381589593600 -0.036757095163641 -0.234640306004956  0.221888533796911  0.627173854566252 -0.552780505701562 -0.639358720413050 -0.960871090223404
 2.248418875095377  1.695337212902128  0.837002810423260  0.376240733025082  0.818198167856990  0.305628809097372 -0.858115459299554 -0.687778250645764 -0.523353326787429 -0.427838516826715  0.643429384088692 -0.681277608546900 -0.133904477986647  0.073384667514628  0.971004114017967  0.469303391514039  0.369955171124837  1.000450102702481
-0.492691066349232 -0.761347753005310 -0.601966653309071 -0.117094626094343  0.529123892689797 -0.532124518553015  1.296387520207374  0.501255535806243  0.162548636824933  1.672699149346178  1.792908453466731  0.694727898375537  0.818723268461619  0.232962292886054  0.755149091803182 -0.075631695767414 -0.370860571554454 -0.804289971893189
 2.199463997067992  0.251968044197825  0.588433447961286  0.624737696566491  0.574699721722515 -0.830487631300942  0.430971524845778 -0.019155514388925 -0.772011738549124 -0.855436056180461  0.144114926176021 -0.098516749994143  0.179508067466565  0.437962746494991  0.842860777083628  0.266282390535912  0.530169684633910  1.081539025823128
-0.943902657551661  0.394198123598188  0.408845931667643  0.338490507620550  0.613044045957932  0.201482978635703  0.416947082815345  1.518653303239948  1.070006887795317  1.659974157724049  1.204558885698113  1.067374142587072 -0.090100209111469  0.423193382402956 -0.208514947278075 -0.864444075826158 -0.047725427841768 -0.900046365203952
 1.357493428253126  1.658295324389568  1.673129705506729  0.474637267692850  0.068402206507638 -0.284760145531109  0.129618846280583  0.231531683722252 -0.928610433310224 -0.562604994772458 -0.388875484982766  0.139360089177644 -0.496860007941367  0.042542651893359  0.884860441761768  0.329520486561401  0.741503579709725  0.204499510289307
-1.340978112756373 -0.346353360932685 -0.305336887759276 -0.672400241885542  0.056433441215488  0.196184878660306 -0.061465842374849  0.079553999934121  1.514510304690467  2.316269285920224  1.638563978704995  0.947043659488839  0.942393632071792  0.057544307261626  0.050506781820442 -0.724161083713323 -0.116596998097772 -0.398025237542853
 0.832690993548139  0.887342522718497  0.371482328922596  0.053778818281101  0.390953095986172 -0.116381605823470 -0.130816158188104 -0.390697128489325  0.212480989674363 -0.003580684230664  0.374785607205260 -0.001924205055897  0.454018563809400 -0.238489280467717 -0.053576674299855  0.083194190625866  0.289576696365303  0.571174730063454
-1.028829486748742  0.124547611659254 -0.098974881242976 -0.071755338173058  0.191439032170960  0.902790496219916 -0.083100816352860  0.492754411480083  0.873506180541210  2.172790457194250  1.650908222519303  0.754602872324752  0.615428676354782 -0.251341965653166  0.011656036957134  0.401884360311325 -0.498998910728295 -0.961055623363991
 0.588005300698467  1.260616296704343  0.553232189580016  0.334437417616371  0.344506187680355  0.491892683012487 -0.731379161704103 -0.670104588184962 -0.535039480842538  0.407351636936526  0.489383085005450  0.168875063346194  0.417240808289646  0.051383035622768 -0.055493548002435  1.001889111113482  0.232272006644437  0.219963233401352
-0.495554716621138 -0.880581300436124  0.279533209509589  1.157015559998077  0.626743558982780  0.274614733306468  0.745945192290282 -0.182957429203932  1.680353047540324  0.850400270935007  1.100801891905492  1.541947371947950 -0.004359839705746  0.475500713930630 -0.412322345956058  0.810740063681909 -0.847647587232027 -0.127807807440255
 1.501511402365718  0.200961947379610  1.047565173403048  1.408974967741221  0.525300076362763 -0.188938751182770 -0.097369404395926 -1.188332432698309 -0.321140205943898 -0.891846421867566  0.104101540938332  0.721074682417245 -0.202267484350215  0.784765484330425  0.287603318587191  1.454683497965467  0.074502110588435  0.970525000079005
 0.397435124555511  0.011792859170381  0.653338786975960  0.373278252204392 -0.201166319644214  0.118944477842753  0.359183080018499 -0.208447590204083  0.616827595475898  1.798273163028072  1.179900876009342  0.066505867005692  0.070361346958498 -0.373385666007058  0.078796146918489 -0.761475287366772  0.244410201361099 -0.567071819627504
 2.028184863028476  0.609776361828045  1.345521575820296  0.511483665654863 -0.259920369632807 -0.641568274085175 -0.454296802920963 -1.367387298738884 -0.937523923414433  0.119680195473934  0.101519112082776 -0.252622344244468  0.054354244430581 -0.316249236596037  0.688184324901465  0.356833894179513  1.315722042212983  0.607702536002870
-0.377363451022678 -0.108005125911539  0.223864784169589  0.066356002619326 -0.056923779528291  1.060647011391239  1.580634817303710  1.122032710840024  0.762956570130801  1.402333640055891  0.379705565448621  0.092398881872565  0.061188848042583 -0.377314003715928 -0.367278160167540 -0.848442312180516 -0.736381041527333 -0.545924063390008
 1.304051859219979  1.178735932872122  0.553575593587273  0.491349639127614  0.163080303068871  0.439829136819002  0.691616468827498 -0.093792181795080 -0.341677738090752 -0.377168094440772 -0.881004830873809 -0.581704149209331 -0.191807428839220 -0.378887831029450  0.591501717895189  0.257636089976147  0.155223492611087  1.116948673748533
-0.345088390213028 -0.552288163364946 -0.411415610782758  0.518220318772906 -0.245362661300413  0.306778085345704  0.600329467223539  0.405875522799517  0.425172306644909  1.283259876742364  1.774412689673682  0.778150543973657  0.378370358230286 -0.525573487629167  0.230920552974267 -0.007249866738380 -0.460519269071694 -0.687657400668980
 2.107706614881204  0.362890264526657  0.578544119917932  0.809138614455057  0.197493469328034  0.157747981292688 -0.048539534543201 -0.705937092913260 -0.321107703607495 -0.401882340407944  0.528276626757658  0.060919461030047 -0.196355373679360 -0.457564814865729  0.524658575181814  0.296690464096941  0.243997185935456  0.524028497924263
-0.815893689959323 -0.511361554892786 -0.611901977730123  0.605521087371161 -0.045548567676933  0.310690409755395  1.411036457665528 -0.019819909015931  0.806811778709953  0.813771124941200  1.221998498324182  1.254760228847345 -0.021196721006285 -0.140487417739850  0.296815434196636 -0.849144989040446 -0.539717237027632 -0.515357077026076
 0.808025272597118  0.176337561749481  0.278282181852667  0.857311543678269 -0.369366911025802 -0.104764548038836  0.659673181683371 -0.988998853405863 -0.309172257153294 -0.685868826923055  0.218518358452242  0.844080842101838  0.086997437783349  0.058543042918930  0.948472245819758  0.068068422725331  0.367269130031504  0.496640819007375
 0.045308580745304 -0.214128406398343  0.256309385785657  0.137998845510212  0.375144316187188  0.153416169038247 -0.097805231401529  0.085379510232488  0.965006792282296  1.251106297389306  0.758364056768956  0.249248895255790  0.668860577795738 -0.250062749428515  0.331362138712621 -0.636099091752802  0.084617738333214 -0.127629212356168
 2.023165745541794  0.675067238232385  1.352231266185483  0.704683017304095  0.072761122269523 -0.715008213007099 -0.953859232561940 -0.722746096289137 -0.802512705131293 -1.009591434359259 -0.577109310009941 -0.605809498240155  0.840639557508391  0.294922214719153  0.697049638501919  0.240312097568336  1.137920838603535  1.247535591028600
-0.788789043068584 -0.217065591072168  0.402098631714629 -0.290926955896042 -0.203778946605267  0.858071616083095  0.893309803129999  1.245692197107111  0.345407206397902  1.483259709364182  0.623122585397022  0.434367711544075 -0.518329038381381 -0.145228528165051 -0.449908633582883  0.028914573120744 -0.858056893248047 -0.804557217509796
 1.358354445382751  0.976808020359635  0.647957617625468  0.442720564855857 -0.036838796768768  0.046720994447389 -0.035230146121053 -0.639328473863207 -0.945162881985778 -1.023649322595777 -0.577403032420839 -0.322322643821554 -0.716182674390037  0.033914970827723  0.398905537986552  1.019870623884992  0.553976294984662  1.196731861846012
-0.866845613577620 -0.318649669154956 -0.378717526219616  0.898774829324456  0.960489641605404 -0.026023253773999  0.490320575955510  0.702303302225720  1.173203799634318  2.091102180076826  0.688908584907457  0.498841603093971  1.015796925204390  0.833386953707752  0.122895735231099  0.071864065984328  0.066042592066484 -0.592527248255108
 1.479068742068083  1.043067583555850  0.324198198859611  1.455084955374309  0.904601795042476 -0.340583262894236 -0.088325121895045 -0.025871283994725 -0.794804634081685  0.107831983193897 -0.508161038832428 -0.592479278329916  0.914803854740525  1.037967729689290  0.226688177176013  0.718724215719223  0.801671078132973  1.352975559455618
-0.592918656723670 -0.654332910304510  0.188002988747472  0.279291475717784  0.073463418402795  1.029571776825547  1.366396891523783  1.016475921838257  1.096282255932107  0.615630016261106  0.738974884958137  1.029539828608582  0.398832712235139  0.144149011667727 -0.284256096828900  0.082462402687581 -0.671976456181399 -0.178065094638730
 1.234154717166490  0.781781491330485  0.999238897092823  0.421082657846597  0.665361546272278  0.611018104436220  0.507466168081347 -0.596226695444902 -0.143284149665505 -1.047274381143717 -0.195097925198895 -0.324209748692181 -0.345819304631574  0.086019196018397  0.048850342458358  0.818855857995201  1.028741635630054  1.581820015794375
 0.256281923351119 -1.093838742574076 -0.089006223440380  0.740953075784585 -0.028534406228766  0.087394821887780  0.346831778495955  1.297520421194751  0.190339460808253  1.823271101451006  0.465638137024889  1.107879719084510  1.215984938129093 -0.372808717634842  0.066290970719265  0.660114613446805 -0.510620240371135  0.215239405872626
 2.467259829793954  0.301380946228577  0.620947999216365  0.538105907549608  0.321815648442168 -0.047510342116459 -0.567478056241051 -0.004369940354811 -0.791053309561571 -0.521935246341205 -1.038005140239251 -0.090652233232032  0.637841676302279  0.187370353030698  0.729214610175800  1.268530684898608  0.418363013844722  1.565393369587541
-0.486130764026515 -0.282699849260142  0.659013222717397 -0.031026553488771  0.434988300283684  0.206529069186239  0.501014048547340  0.026296427116917  0.063802045448862  1.666901625956840  1.491017815105271  1.134348220416447 -0.315253679491740 -0.437510288487147 -0.151778440260212 -0.153423206237878 -0.317991106185800 -0.422867824132067
 1.259616283829261  1.767224013601100  1.322453774978026 -0.243844922673017  0.733653396948326 -0.640300618641804 -0.321936067050617 -1.018527990196692 -0.932369762654311 -0.863572876714690  0.075820122438650  0.346691551932877 -0.680223542661156  0.305511697757027  0.276880256070306  0.824040499649567  0.539078611445522  0.666619266778866
 0.114280766544378  0.206620488723948 -0.290247878496237  0.270946341774681  0.558364098478083  0.706740699469319 -0.098985419981633  0.996550329306945  1.827848777838043  1.092407718435097  1.315476526632542  0.744769410289103  1.062260699565158 -0.689808642606748 -0.484533316369030 -0.820390568954939  0.053360167533245 -1.166047371574984
 1.900740519190986  1.260815447378433  0.509256221478324 -0.270938551426570 -0.084112171418105 -0.044459563038615 -1.022398008407258 -0.347115865973233 -0.809454412065613 -0.510677298287112  0.100193449698143  0.085173398465424  0.781432439266918 -0.051107278999647  0.352467733781010  0.939362354033541  1.144265442467055  0.176170197192986
-0.727600087335218  0.696539894242666  0.304564111312009  0.767167477086510  0.368552441310984  1.261062473002990  0.166769232880249  1.603964605636931  0.146034434685743  1.133681866670905  1.476783545182450  0.959151723559723  0.493018151573863  0.786867807284787 -0.052518496303667 -0.748155657822581 -0.227137283780072 -0.210687576053674
 1.310538894617616  1.942770148408393  1.195342101596144  0.974209694043103 -0.407135480786548  0.688253631889995 -0.990387521939065 -0.328814600427772 -1.209341931133871 -0.557648827492339 -0.121843640497218  0.005772162246996 -0.050389458029587  0.854445922084135  1.069401611179006  0.237999318415469  0.940737749332731  1.889815151385251
 0.443716377103473 -0.105259339801524  0.393727874800281  0.210543495137887  1.040274120293170  0.345705434564369  0.655879428268245 -0.179793713806903  1.482416174805587  1.158688411327088  0.481126266832368 -0.262422435640316  0.682552813434646 -0.315706442310799  0.702268511353874 -0.602286360269761 -0.245917824122518 -0.585627281871497
 2.277369519939891  0.391975293627871  1.017579608983893 -0.131151889674386  0.874254609929514 -0.136952110497172 -0.291114312336093 -1.097538329493579 -0.302757115110902 -0.017105289648618 -0.324371419062400 -0.528437746061274  0.640544096000165  0.178753656880965  1.415941510997071  0.068584755597807  1.465948926030196  0.458962498789099
-1.038827073615018 -0.455246602471322 -0.035526902876511  0.221236875239817 -0.239370833506844  1.186462243069409  1.103825650028154  0.075587233601110  0.149043422174989  2.228931617290400  0.435982374476288  0.377334213040203  0.172506984985183 -0.710572924748408  0.006315855177632 -0.785821634156523 -0.302047594897268 -0.519127075085285
 0.885125734596651  0.216282670794794  0.854271440706323  0.308668085988118 -0.070988157303180  0.649016948712814  0.162707561381054 -0.515052805671317 -0.886732471377137  0.080379291922137 -0.892114241449409  0.030947707766718 -0.201437674711176 -0.536827161872915  0.147915177396054 -0.228350220460831  0.705549814991806  1.026756258863293
-0.257608677760959  0.287726647948073  0.249850893890588  0.634562466345084  0.244733904664172  0.207025155348187  1.328925610289087  1.280294432726707  0.508450218823996  1.101704926503950  0.995628275971673 -0.054629744898277  0.649881649005752  0.171537084130424 -0.204956747467883 -0.513837713065822 -0.157915495992233 -0.973277745517857
 1.299749551014274  0.989460862642944  1.371085568877798  0.823864656362565  0.106242164246954 -0.428933097377646  0.386536901505445  0.196532427068994 -0.593294246702801 -0.895327206414404 -0.273239042397816 -0.445906241513663  0.504588983877844  0.562067093027055  0.654168914229666  0.235393341261128  1.566638378488468  0.172954063907562
 0.081817289144681  0.055828172914392  0.338091219915296  0.879439253920049  0.747794860484822 -0.155809133121243  1.185850807426145  1.699451479207207  0.065601355510727  1.875672405282075  0.857499573286177  0.044041057315351 -0.264843851679046  0.094701323435909 -0.834564871111205 -0.279997911489265 -0.204353080833395 -1.078549460169935
 1.898634076888876  0.741737516506743  0.881626888139446  0.527278467392520  0.038175893719228 -0.507061319986896 -0.396539300081824  0.358492737244030 -1.356961162003311  0.137588558513089 -0.498184627604959  0.049136880394471 -0.470254001101002  0.451753923614557 -0.064521851381109  0.938432152138461  1.427861156807891  0.516664292839356
-0.688220821550250 -0.610559446370674  0.649423935207413 -0.292598347912643  0.395611118607393  0.128795472330010  0.858518538020468  1.502896659454525  1.654072798522113  1.457506347764410  1.440895142007651  1.507828082864505  0.255989479470082  0.302772153360256 -0.202988994515149 -0.671152619909809 -0.856116025193093 -0.652546905192259
 1.450194609492720  1.396322632248540  0.763444431685948 -0.203884577589066  0.049951860247708 -0.456563318385652 -0.418257391501362 -0.773236078767748 -0.307992015907402 -0.763588110523279  0.723574164859601  0.083829952764331  0.460430477046676  0.992741220529051  0.348557654953978  1.259611511317035  0.059384044220627  0.827239529228108
 0.259216790093848 -0.218631953278071  0.741954925587404 -0.017066162460846  0.522143895384651  0.972920790667331  0.865985616521829  0.756951496412493  1.314131760078628  2.096319578921327  1.435546402168954  1.358648120593120 -0.281566906792485 -0.066889978926304  0.063416726202114 -0.931359421437210 -0.266490256254429 -0.306484865699201
 2.480831895092808  0.847250383463867  1.502434139061904  0.845603355387104 -0.080939795070491  0.007807296048029  0.170271022630781 -0.236002353106070 -0.462232635282373 -0.305588585116953 -0.227358718159286  0.419907330513665 -0.178051294722897 -0.216269785852933  0.727758916489877  0.059528780089089  1.142504351694960  0.942917475033926
-0.715451576721990 -0.806230308052556 -0.174926154015644 -0.047078960447351 -0.014790415452391 -0.547348660064534  1.183188779122756  0.618632282826153  0.573808834079618  1.707024206627386  1.091801666145718  0.488303392965592  0.433924342070867  0.202230789536774 -0.671684196999144 -0.188742834213297 -0.897327519833328 -0.098428003127101
 1.457934823600258  0.237569600202822  0.870670880604523  0.422350973849164 -0.372337383920009 -0.518230517770796  0.003857370405646  0.108832361684237 -0.338812460484844 -0.059118931214487 -0.228790641762418 -0.387001222272722 -0.177888544606004  0.044538347401196 -0.194338318451180  0.193530824945105  0.016392430680164  1.506768748836520
-0.429313076704280 -0.702708219757718 -0.423095963164939 -0.255252612455758 -0.175505047614753  0.339313296960568  1.503565126830258  0.663601024637305  1.864997873479225  1.775902150954578  0.195483970575526  0.807375843083420  0.740281846178169  0.235772290507016 -0.543900170480416 -0.609990100677163 -0.227346889743137 -1.032999365781394
 1.076746613417249  0.707377015068947  0.196036799530436  0.006632672804008 -0.387221773383430 -0.199477333895696  0.494976693937106 -0.336763717097490 -0.919563005295894 -0.025437410430946 -0.577677549132428  0.207830707114204  0.353479565667335  0.093938592636106  0.301801625465095 -0.044391558759752  1.708438422701074  0.122624254869978
-0.885898447160199 -0.159195647611068  0.023060991751349 -0.398034976157010 -0.326829789997728  0.339277073062357  1.029498338199617  0.603966671928117  0.799589595008017  1.743473383520635  1.905421698344495  0.680549083765831  0.560291816682181 -0.620939733844335  0.661869897771015  0.092559644679671 -0.866352639159029 -0.042236840456970
 2.387492320944608  0.804127119116789  0.500220797225583  0.131590653185367 -0.105619471079581  0.135793132847589 -0.435146728051235 -0.706743769170333 -0.393777372972997 -0.748771668694823  0.430927618911737 -0.067495597566283  0.271793511980807 -0.530994735341965  0.632695673788413  0.500379731931139  0.637105794962009  1.394681697112909
-0.591329696364345 -0.110106397682585 -0.029924511469375 -0.040267689007727 -0.162361357003237  0.714104174254544  0.633600059550529  1.530258745178443  1.561232219787459  1.928939373246878  1.275409340701813  0.211958988904435  0.967814988050703 -0.067733680995005  0.016827545175747 -0.639582017851587 -0.583153518519573 -0.807816742234392
 1.251572892527957  1.139700823405537  1.228101612296932  0.300891176618176  0.121303067329603  0.015663711618760 -0.035914020500919 -0.405072844827874 -0.039543350632984 -0.963752006696739 -0.207608245268605 -0.197607593325905  0.339986622506198  0.527533209976974  0.410749810907176  1.068444645499125  0.119757912343747  0.229106336490507
-1.074963588994701 -0.309438226399642 -0.433239407665437 -0.441112506811204  0.399620980952617  0.224606414852090  0.556968164771826 -0.075036939706990  0.702211858873096  0.743635102111729  1.469970056176310  0.351357467233604  1.135683427466658 -0.290255813896704  0.365454506214136 -0.089174605143992 -0.179185532631857 -0.663985060292847
 0.880947568372618  0.651390138380540  0.679433971773426 -0.165804738392620  0.428348104461712 -0.367219493331613  0.091532558388332 -0.863189641544815 -0.723928966973219 -0.748233815815532  0.060133333005049 -0.092086341878204  0.682723610350495 -0.434491903006910  0.727342164633875  0.654421567439318  0.498384851976391  0.178076431810849
-0.432318216506492  0.216513946725940  0.144505442196433  0.352075862862743 -0.250758712676188  1.431526030060791 -0.036236816378005 -0.001978351190261  0.663197197048449  1.593708943612617  0.980746043838830  1.102629302712557  1.177644840112423  0.611110288182521  0.262703943322021 -0.307448753661937 -0.726905941507606 -0.955497759172784
 1.608401363378293  1.448609934921172  0.620130704779464  0.073329163666331 -0.030781060788480  0.727988557531455 -0.598023503013541 -1.125828228533106 -0.438836710338382  0.051755956010948 -0.659358968528505 -0.002837885898493  0.873162066062589  0.968185426231218  0.760355335094780  0.742016239350909  0.119178049197474  1.763774543316017
-0.273707978013557  0.385269570388878  0.993774826810949  1.233472749897909  1.263580109323587  1.319908254221613  1.709496399597251  0.143671021084424  0.141338499590335  1.993314945792914  0.341028240657254  0.970706426102193  1.135917923295290 -0.511336229266887  0.638955230746822 -0.557227697898935 -0.393227429676461 -0.382372709143590
 1.486649127304944  1.443327590610664  1.524431427700569  1.294454388366638  0.976931678886766  0.418748700975409  0.202838462172124 -0.571431859021293 -1.359474615998304  0.239561956000149 -0.357742783728965  0.586200792435828  0.816027086669636 -0.397585995151232  1.070755161285019  0.366431211600504  1.103595052319351  1.847431584293879
-0.048322374883479  0.237285256074969 -0.330202741952591  0.092070256208945  0.011904544839655  0.264726879448409  1.102899155780626  0.908309186250741  1.805791295514546  1.111457331471930  1.412040493395152  0.052024253573622 -0.246110975595953 -0.123220222870662 -0.479868319634646  0.365838598382122 -0.801705462941711 -0.828737687521422
 2.246758992547707  0.947734534243737  0.710185939047388  0.051070070354311  0.072022877516245 -0.278249159810323  0.020721025967165 -0.277005771620326  0.163212000414457 -0.567287723390266 -0.544177291872479 -0.375664863960782 -0.177123410706530  0.169427241301919  0.224451317821455  1.115227403198893  0.897343611441198  0.474897212544990
-0.767210241310279 -0.069201129676209  0.883209672230904  0.474090130616506  0.836576997339961  0.117016849328862  1.113029091146084  0.232264029624660  1.653845172071563  1.398949692420209  0.561647006218136  0.758542891948544  0.416807639633461  0.032711552161807 -0.482039586543090 -0.327259340886114 -0.511621530743904 -0.148925852998693
 0.655260204701931  0.757169052331511  1.166512100321379  0.346178996828568  0.589332706449966 -0.622886269409199 -0.505462704549463 -0.629784069079642 -0.828029284685323 -0.318745271055804  0.070914227317081  0.041189311414696  0.515713781567735  0.295237058072914 -0.159398324060074  0.842876395079820  1.255542345581617  1.626248763787508
-0.197317198820025 -0.340277888275016  0.995794133003117  0.659711672248877  0.456972332231106  0.645303366042171  0.789574250521201  0.788521503960177  1.679075612490480  2.054294700528998 -0.210704262250561  0.229634398428653 -0.494253559409334 -0.068897550381256  0.356996654974514  0.445944936012996 -0.846959015940693 -0.488073985245579
 1.077217968599371  0.215461334828440  1.593484382973360  0.805285872046972  0.012506279792524 -0.201477084359054 -0.167710186239480 -0.671674773573577 -0.640295009827299 -0.454513567518300 -1.065649171379130  0.031174007291369 -0.303265256220333  0.663591206553411  1.056690141149276  1.709737778853983  1.048090365994400  0.808020758088697
-0.329340690791435  0.515290794269111 -0.209359745065209  0.461479436910498  0.715245656137553  0.610073574316111  0.421946322062890  0.362127270057623  0.315634372847601  2.362890378850412  1.028931168165910  0.370800391645299  1.158238507077330  0.449249912790296  1.165053043554696  0.782113362806652 -0.319811725509211 -0.081753188543580
 1.371429788137322  1.566995203412708  0.793918468933161  0.676967927878656  0.974282336538342  0.373573195202774 -0.578451783987208 -0.203277391098480 -0.496684681744175 -1.023434442983239 -0.125663373724463 -0.400780884739329  0.540989878321023  0.614418465474128  1.317505209778982  1.222097561439666  0.671269895456801  1.707662855768533
 0.160348797606411  0.420556696026272  0.455314838489043  0.118084974118695  0.490693142997737  0.814291278374030  0.591143499729363  0.767191826633650  1.232692411361476  0.946983574033544  0.479855153049813  0.021845281862352 -0.023866897164050 -0.061394856827734 -0.213481343803701  0.229767391370248 -0.312252419723824 -0.633065828964708
 1.670748880774954  1.192524018874025  0.816851971896819 -0.108692854792183  0.165325973086936  0.123509265973828 -0.309591654489307 -0.898832965726124 -0.217701253203549 -0.421182460530430 -0.009380733648562 -0.213976620764362 -0.049238886816154  0.580657737666644  0.135093132822792  1.561152929768493  0.914114756057962  1.867982788093617
-0.751718184917007 -0.403088447489374 -0.256911291742719 -0.403790278509043  0.711514338640244  0.169298987524597  0.979717892069274  0.493611870338358  1.733594019806806  2.211931722327457  1.022191223630320 -0.020437175758571  1.043236873122855  0.114899970681610  0.146373285852254 -0.415838011522393 -0.548953404401333 -0.845725166771888
 0.910697237622476  1.389373004683218  0.934156806184046 -0.005102870321819  0.087889698648083  0.154535253077020 -0.561252642574500 -0.102843053890914 -0.000380240148009  0.044547695858166 -0.382554170506717 -0.356482096003368  0.224830885406676 -0.181322882131767  1.169137134521724 -0.051668342175622  1.157297137554026  0.772032931000141
-0.170298761266485 -0.095717841482865  0.153763715955266  0.542907598018499  1.040843910988446  0.968750279979428  1.244444544697613  0.294790472588501  0.892805163078296  0.684668339323441  0.604542309967968  0.992701129132366 -0.153938252941517 -0.443909913756438 -0.626997048950685 -0.504300007709208 -0.567907221521051 -1.204342196472020
 1.012830841780358  0.273181600367053  0.024255057504190 -0.115157379641419  0.204835205221092 -0.151370449132054 -0.249499529791462 -1.132005551766682 -0.758347500271935 -0.477441150922728  0.384343229640228  0.771227890504878  0.538280356705631  0.425239872214689  0.366172935045242  0.904830370543093  0.989679839456557  0.851215988044388
-0.640200314238235 -0.277633888353220  0.119762275745117  1.108496578373662  0.394128131286061  0.791834483877846  1.325899586651103  0.296803761646096  0.318990973359585  0.560063294007014  0.219837880197213  0.348890110685508  0.412573761682425 -0.366766921905947 -0.231769080729481 -0.896013689056833  0.228334284280541 -0.510096406144605
 1.301371368187469  0.297384793760759  0.159114764131515  0.992978648687761 -0.349237267587718  0.318820453043243  0.260699349518135 -0.772820370287769 -0.945184491750435 -0.921863287628689 -0.544969657505181  0.171731908665478  0.565350789809983  0.003949344272128  0.711968962476580  0.061770416097594  1.450023759527690  0.701298425736273
-1.161859073188495 -0.139656773440766  0.245142870247342  0.233634831727749 -0.154562721971935  0.216867573622440  0.354994610593668  1.196342434790470  0.031062606128441  1.648659522492502  0.925927073365554  0.652263435963453  0.966505631810561 -0.593439146460698 -0.889909007038685  0.140478087993086 -0.637678944262315  0.018168401464124
 0.871598669187152  1.686739278677448  0.567268725066883 -0.084869519516736  0.395985829497342 -0.283282157678501 -0.208668264237652  0.099165025407462 -1.250733218174511 -0.641589042923019 -0.303910271210575 -0.588382566869058  0.421280186071908 -0.218792252178437 -0.334250686877806  1.207639958895307  1.136748243389704  1.309568922399452
-1.380187162389228  0.196452746559380 -0.173220113841189 -0.644219950009268  1.103125722842463  0.978885974372619  0.318333531804421  1.854099969251030  1.523727212813193  2.434049139954783  1.522293229254566  0.264542058565966  0.716615930693271  0.438882605783003 -0.470879783717194 -0.407079755664154 -0.420823603985818 -0.300812380893236
 0.885912528947298  1.934666563782306  0.194553274208634 -0.061386201414470  0.878533570359960  0.440850293856855 -0.387862964461826 -0.254287685412492 -0.603887518437693 -0.036179284526005 -0.457591694399014 -0.582181013512648  0.716263074792484  0.802823527859944  0.678698276294152  1.510488238316060  0.288943982220108  1.880914398954807
-0.344432668956699  0.430129443977725  0.491109822250117 -0.434521294082321 -0.226206523476349  1.171329019904376  0.657496041273530  0.337260399037027  1.905060129035884  1.599695944792871  1.459219130606770  1.067579406244507 -0.138294737706576  0.554212528115172  0.309937254854504  0.711649034400903 -0.581372939993665 -0.814888030991625
 1.896214971189171  2.008648794528201  1.060434193504785  0.742054589659744  0.064805397884024  0.859072086259047 -0.425042322098836 -0.750587190310251 -0.651323611314530 -0.665593774925569 -0.362499722099247 -0.277805353645105 -0.512318075772488  0.236330218752804  1.022174366524412  1.472527141471755  0.507552361215083  1.598328533301136
-0.393690035974888 -0.772515745660993  0.893671327857998  0.673553217139883  0.763349668907700  1.416245113764257  0.180398819910127  1.674515004093251  1.761568791038420  2.155605237523379  0.358024068258993  0.573487015503789  0.286567958422853  0.676358576251639  0.466324898396719 -0.659277816042948 -0.427466928016879 -0.407913020074729
 1.141223253181319  1.405656616970381  1.359846532080885  0.323976044423244 -0.153623112456658  0.907937222914994 -0.886285728322738 -0.001858460282447 -0.352912648901502 -0.361592908762267 -0.346065471908239 -0.620496702370855  0.188513203118967  1.046296261843154  1.427616360494219  0.909375775120698  1.616441417713936  1.354345232667840
-0.930997978692933  0.133511030384963 -0.334194792227252 -0.032601396564622 -0.003782863986303  0.633502421000849  1.057460612798158  1.113521467763331  1.418894422347582  0.997393961766407  0.998560073060569 -0.044966661116484 -0.054635439576067 -0.525604562235952 -0.183274642210634 -0.646484304959908 -0.212504080130916 -0.729676861224970
 0.699480676453642  0.983472055553705  0.473338955544259  0.144025864887397  0.026699314584106  0.181693939115278 -0.694186642926516  0.303176501960993  0.249075273736278 -0.620941256548926 -0.332879884808983 -0.508956866700216 -0.242050566119911 -0.145855840475714 -0.051734651275926 -0.011267754330584  0.851426996161447  0.394499240441088
-1.403134070662293 -0.755759178436996 -0.847145432555233  0.524223463404546 -0.351974015998123 -0.271500106502961  1.167321033216447  1.054177282665431  0.071200635008245  1.419026945746574  1.810279731809756  1.129052271522807  0.106653788099448 -0.132413530878189 -0.110710265892854  0.094304216539200 -0.728880181486087 -0.789261305261434
 1.280902902038177  0.551068521840962  0.111772238874129  1.033908461519489 -0.101773584819711 -0.636103586451514 -0.186340563131988 -0.495627263567027 -0.954591144063889 -0.194512474932842 -0.394300295576827 -0.112015150641425 -0.471598173774402  0.143412579935251 -0.169529377794007  0.451523063611358  0.775427023993768  0.230937113934352
-1.087893777527354 -0.526050116304909 -0.715668926850959  0.066579567355358  0.279889686915389  0.059994941782460  1.564461964444264  1.116322839385441  1.356554982074980  2.237141434443329  0.905446233868525  1.377914985549456  0.094519975600945  0.046756334945995 -0.721260803828010 -0.708395535972934 -0.842053558407405  0.149961472268848
 0.855127484173273  1.540947291670007 -0.081382233533499 -0.255403113957889 -0.122436831918895 -0.437982748275220  0.633728037417714  0.081873697145197 -1.153562572644326 -0.068030470549168  0.015924224806277  0.984998223141892  0.370652093272639  0.491095946640705 -0.126213902873203  0.025380036449342  1.598828475789248  1.937912392613305
 0.410819687316352 -0.568855067770539 -0.380690302855771 -0.472324903380954 -0.180911066610525  0.501044405952423  1.009232597674554  0.274977017440143  1.377816271329415  1.315600464801426  0.901331773632067  1.266816133666446  1.280968409635742  1.120520992467291 -0.000560663467973 -0.605871448604365  0.603228076276254 -0.369324874706635
 2.140720912592120  0.218314885493561  0.204296416114038 -0.222033379339041 -0.135591919411963 -0.055238500082227  0.210933038796516 -0.629173560933484  0.199539904502026 -0.375695396672436  0.046592260605088  0.744786822977919  1.113673716791625  1.394375205551482  0.109003032827966  0.000885444640486  1.714831584619559  1.050350053893724
-0.797098153557364 -0.028335915443099 -0.247991771124491 -0.806122718504397 -0.150650094585099 -0.050290008009784  0.839815724553257  0.687148935540796  0.885087684409209  0.932044678684521  1.483674424485139  1.148957729427774  0.664434307898888  0.610548720504063  0.097891074264505 -0.356483305738497 -0.876787767432579 -0.732377760667010
 2.183267619929824  1.354771664618717  0.463950757363627 -0.198517062947139 -0.291209365057545 -0.568170388816333 -0.186411785180610  0.076150138084590 -0.367001338065761 -0.591646834231578 -0.799152510081905 -0.166859906846699  0.657306114424243  0.490481582308823 -0.005455058553637  0.229815763675289  0.300722193116314  0.243558085205626
-0.455237595587719  0.405082756338574  0.146763737816766 -0.908127182184619  0.105831156080972  0.876978663010188  0.784049630026640  0.551590898949726  1.253032424727724  2.000258136436375  0.505335274396186  0.663092072407027  1.181665396961345  0.145633202342240  0.606802349258491 -0.799540543312913 -0.372858917003892 -0.870140635119868
 1.343373312878152  1.840033129621236  1.155186790520948 -0.699709341743933  0.294348278424183  0.275866664874565 -0.561605683835835 -0.030374820817534 -0.547377697647199 -0.036825722124602 -0.549893434632064  0.266767205880409  0.708113065613787  0.127080762646532  0.577563111687951 -0.220491417841020  1.096233022334599  0.703878775712016
 0.062038745272467  0.011321150035618 -0.387087511454906  0.019682219257288  0.636665012118175  1.166730693319714  0.530023301324466  0.396060568147112  0.622508026319626  2.195157551942565  1.114290462974768  0.358851893521838  0.347135801738432  0.095535154729538  0.551538676360119 -0.291200586377578 -0.482343935818726 -0.248536892710851
 1.637908117565705  0.595391128643883 -0.100349275413372  0.368298948117234 -0.285100488181182  0.664977528546241 -0.704602309235163 -1.029926783876138 -0.792242188533698  0.423292329719768  0.308748716956571 -0.090377880978972  0.555550647814586 -0.020376852279842  1.499050729372680  1.119578603167936  0.789070793766138  1.233127362966221
-1.090714434385279  0.309203306781246  0.586901298661102  0.330760109900373  0.307811678490896 -0.242888020704799  0.930327938654985  1.363225528344095  0.718807130938147  1.550507289881892  1.236707851717068  0.075865820603043  0.733083383229762  1.025528120093667 -0.339660243465328 -0.106247480007340 -0.849140297390425 -0.536109416828776
 1.181989411882063  1.281393659137855  1.278494116952101  0.726403858278521  0.454669863652500 -0.490389548617591 -0.192290018954927 -0.395086945390834 -0.491749838376582  0.072231991565568 -0.227338499146642 -0.519822776592102  0.224456707291596  1.054887912351580  0.702684692372708  0.221057891572615  1.151812506244150  1.925206692251295
-0.149778038860090 -0.307496828387102  0.811543569977388  0.663732467281427 -0.108701514510989  0.234584208812374  0.471404152881459  1.606211034916904  1.290816118535860  2.172678433773535  0.600039951559390  0.799756579927183  0.484606853346922  0.966740651014087 -0.404020799599805 -1.048273146387076  0.261333675881988 -0.614501356465670
 1.291140658783240  1.916606978872423  1.023529031852568  0.600365153758830 -0.129858596128793 -0.416194486249116 -0.283526585630028 -0.780813013179949 -0.458875666172792 -0.870385367597552 -0.311819995055328  0.085540390146240  0.455187971910269  1.317811632005281  0.290154551885185  0.045764208213854  1.569755856743987  0.314100062857989
-0.344435801388253  0.380414637761219 -0.033029471907527  0.063841450137555  0.602770029781074  0.787771277148216  0.959383394867693  0.616147631536864  1.269252608567167  2.185015521518007  0.399986910675004 -0.382190792888848 -0.335360906049818 -0.312186850952251 -0.603603072290663  0.029440597311152 -1.162690720138374 -1.236393167924853
 1.449868653716748  1.010388115312657  1.042152483032739  0.327189344521981  0.315453750231148 -0.138842296831566  0.077394492101691 -0.381347073256834 -0.354331409053925 -0.962140342184445 -0.804866996573315 -0.826513939748401 -0.313174148079999  0.324408260338618 -0.003988097520796  1.253131708770696 -0.006054710081988  0.032992518668787
